=== Classifier model ===

Scheme:   J48
Relation: 4syl-all_training-weka.filters.unsupervised.attribute.Remove-R88-weka.filters.unsupervised.attribute.RemoveByName-E^(Word)$-weka.filters.unsupervised.attribute.MergeInfrequentNominalValues-N5-Rfirst-last-weka.filters.unsupervised.attribute.RenameAttribute-find(_merged_infrequent_values)-remove-all-Rfirst-last-weka.filters.unsupervised.attribute.Remove-V-R2-13,88-weka.filters.unsupervised.attribute.RemoveByName-E^(suff_class|signi_suffix|suffix_phoncat.|suffix.)$-V

J48 pruned tree
------------------

suffix5 = ppich_or_zerin_or_ylaxe_or_lente_or_eform_or_ratte_or_ezoid_or_ieler_or_ernen_or_oehen_or_evala_or_hysik_or_litik_or_erbse_or_ikale_or_arren_or_inett_or_ntuer_or_nform_or_inger_or_fisch_or_quium_or_nsion_or_lfall_or_mplar_or_eiber_or_othek_or_rkind_or_rland_or_leser_or_leber_or_daune_or_matte_or_utter_or_ultur_or_eweis_or_nruhe_or_ntrag_or_arter_or_honer_or_monat_or_artet_or_nerin_or_ursus_or_omane_or_bohne_or_varia_or_ttung_or_epsis_or_aubar_or_stert_or_paede_or_vogel_or_vativ_or_engig_or_staat_or_alzen_or_aeude_or_pelei_or_sagen_or_itbar_or_probe_or_zlich_or_reise_or_tufen_or_trite_or_blick_or_sheim_or_eline_or_uelle_or_lotte_or_erper_or_ineur_or_ament_or_erbot_or_erson_or_iseur_or_tueck_or_rchie_or_ophie_or_nymus_or_nzung_or_essur_or_lding_or_weide_or_enkel_or_ertag_or_eckel_or_stoid_or_etral_or_aganz_or_ieten_or_ffnet_or_uegen_or_ngabe_or_chner_or_zchen_or_sfrei_or_tasse_or_gogik_or_tesse_or_fegen_or_uzent_or_istig_or_terin_or_aiker_or_hluss_or_rampe_or_bauen_or_kaese_or_chose_or_ahrer_or_katze_or_choss_or_lette_or_erior_or_fchen_or_usive_or_feuer_or_dauer_or_oenen_or_nland_or_rsatz_or_hslos_or_astik_or_anese_or_dnung_or_oehle_or_ellin_or_ihbar_or_sform_or_tempo_or_migen_or_loben_or_etzte_or_uetig_or_ndler_or_lhaft_or_ipsen_or_adezu_or_ondre_or_ntern_or_ionar_or_rbaum_or_maler_or_ssbar_or_honig_or_zalee_or_erden_or_echig_or_esche_or_orama_or_melie_or_ruese_or_inent_or_sicht_or_grube_or_rolle_or_renze_or_rvice_or_erder_or_udend_or_basis_or_eltig_or_rofil_or_neide_or_eisig_or_aisch_or_ngang_or_tsatz_or_nebel_or_ntine_or_uzung_or_sitte_or_ocken_or_hauen_or_hiole_or_wahre_or_ombte_or_thode_or_egler_or_ypist_or_chern_or_luete_or_ntant_or_olore_or_derig_or_equat_or_saldo_or_gorie_or_ehlen_or_lzeit_or_kiste_or_oesse_or_utage_or_sfilm_or_rtrag_or_oever_or_tsamt_or_esitz_or_elpen_or_efbar_or_logan_or_athie_or_fanne_or_kisch_or_etion_or_serie_or_seide_or_arung_or_opfer_or_lkert_or_esetz_or_rtung_or_ulich_or_ntaer_or_eusch_or_stufe_or_yrium_or_uerin_or_uellt_or_trafe_or_hocke_or_dsamt_or_fsatz_or_torat_or_hmbar_or_ninne_or_bolie_or_mmnen_or_alese_or_ziell_or_glung_or_lbude_or_abrik_or_ueren_or_nsart_or_enden_or_nante_or_natig_or_onika_or_beere_or_aison_or_nneln_or_waage_or_elang_or_tlose_or_euche_or_firma_or_aefer_or_erben_or_nauze_or_hemie_or_orgen_or_rball_or_stern_or_feder_or_erhut_or_ewalt_or_nkmal_or_heben_or_opran_or_tsgut_or_giert_or_iheit_or_agert_or_asino_or_lzins_or_milch_or_arten_or_kotte_or_efung_or_ueber_or_nsein_or_zinal_or_malen_or_fioso_or_swort_or_arade_or_gnito_or_aerke_or_gende_or_eidet_or_ndere_or_ugnis_or_eihen_or_nzler_or_ferin_or_inell_or_sucht_or_erzig_or_opath_or_guete_or_ution_or_rdnen_or_nriff_or_biell_or_ndert_or_egbar_or_rioso_or_iziat_or_elbar_or_esatz_or_enier_or_ldend_or_nepos_or_rufen_or_diger_or_hwung_or_nator_or_alken_or_gamie_or_genau_or_omime_or_kanal_or_rkmal_or_uktiv_or_essel_or_twerk_or_empel_or_ltend_or_ehbar_or_rtier_or_kiosk_or_enner_or_eamte_or_entin_or_ewebe_or_locke_or_herin_or_mmbar_or_hnbar_or_ttist_or_utbar_or_pause_or_ebbar_or_zende_or_treik_or_sache_or_rphie_or_ikose_or_ufung_or_ewirr_or_maten_or_rdung_or_relle_or_uvium_or_nende_or_oblau_or_uette_or_riell_or_nwart_or_nsten_or_roent_or_nkeln_or_haden_or_piert_or_igend_or_tinie_or_ivore_or_haube_or_etall_or_riebe_or_aenge_or_eumen_or_ltsam_or_utsch_or_ndbar_or_altar_or_erial_or_rzahl_or_engen_or_erein_or_aeder_or_orben_or_higen_or_renie_or_ohrer_or_beruf_or_eufen_or_eutik_or_schke_or_euert_or_ngbar_or_iewen_or_itzen_or_chere_or_elson_or_verse_or_oleum_or_stelt_or_pumpe_or_stenz_or_uelen_or_erist_or_bwehr_or_rfest_or_unden_or_situm_or_turin_or_ellar_or_uster_or_rtion_or_elend_or_matur_or_lligt_or_islos_or_enbar_or_ratur_or_zeuge_or_datur_or_liebe_or_esbar_or_enial_or_eilig_or_sfern_or_armor_or_lafen_or_inist_or_isono_or_hrige_or_rdnet_or_rerei_or_orgel_or_isung_or_rdarm_or_uerze_or_ariat_or_dchen_or_birge_or_idium_or_udium_or_ebahn_or_uhler_or_ndenz_or_ceuse_or_sogut_or_rgern_or_ssend_or_agbar_or_aktor_or_alarm_or_isser_or_summe_or_igion_or_tabil_or_visch_or_ohend_or_exion_or_haeft_or_urzel_or_ktive_or_frage_or_kelig_or_wandt_or_rftig_or_linik_or_adium_or_henne_or_oeren_or_akelt_or_kerin_or_chein_or_uktur_or_elege_or_gerei_or_ional_or_feife_or_utzen_or_ering_or_wigen_or_sring_or_lucht_or_tuede_or_rksam_or_tivum_or_phale_or_eirat_or_selle_or_bsatz_or_ehmer_or_alkur_or_rente_or_saeen_or_monie_or_inake_or_asung_or_earzt_or_tikel_or_warte_or_ziert_or_innig_or_biner_or_setzt_or_eitig_or_anker_or_etigt_or_ilung_or_linge_or_trate_or_lfrei_or_telie_or_knabe_or_undig_or_akete_or_tnant_or_kodex_or_samen_or_erese_or_toxin_or_tekel_or_rdose_or_tsein_or_issig_or_rwert_or_etaet_or_hagen_or_atrie_or_slose_or_ogene_or_ardie_or_roide_or_doxie_or_opfen_or_junge_or_rosia_or_mutig_or_rarzt_or_amung_or_ichon_or_nrede_or_oment_or_ische_or_igent_or_andte_or_nesse_or_pernd_or_miete_or_kativ_or_ambur_or_beten_or_prima_or_ralie_or_stler_or_angen_or_ganda_or_gente_or_enart_or_erlag_or_tomie_or_liter_or_eutig_or_jurie_or_ifrig_or_rgang_or_rzung_or_atten_or_hebel_or_baren_or_nfang_or_rette_or_iotik_or_derer_or_rtage_or_amten_or_riert_or_seher_or_tlung_or_ntnis_or_acker_or_enoel_or_lware_or_ttene_or_alben_or_arium_or_raech_or_otine_or_sgrad_or_ttich_or_inoes_or_uerei_or_anrot_or_ruebe_or_lchor_or_vokal_or_rzium_or_undet_or_agung_or_aerme_or_glied_or_uemen_or_oluth_or_niert_or_erale_or_lmord_or_anage_or_laune_or_htigt_or_fache_or_itude_or_markt_or_klast_or_ntial_or_roman_or_ikade_or_abzug_or_rosse_or_rikat_or_reite_or_oedie_or_ropie_or_opium_or_notte_or_itzel_or_rtste_or_mlung_or_ndrig_or_regen_or_boden_or_lexie_or_ruhig_or_peter_or_nutiv_or_siast_or_eifer_or_emung_or_nktur_or_batik_or_llaut_or_tolat_or_okino_or_kante_or_mauer_or_thema_or_hecke_or_ersum_or_kolon_or_immel_or_horen_or_helle_or_aeher_or_ielos_or_kugel_or_licht_or_ritik_or_oerde_or_tiell_or_mpfen_or_euest_or_delig_or_eimer_or_imile_or_ndste_or_mpeln_or_matik_or_ental_or_ehalt_or_wache_or_eboid_or_ulaer_or_marke_or_lagte_or_rband_or_geist_or_hilie_or_sufer_or_aeune_or_rianz_or_iffen_or_nheim_or_merie_or_uiert_or_nalin_or_rlage_or_aeter_or_lofen_or_thaus_or_ngend_or_nbahn_or_chnik_or_giker_or_ttbar_or_rhoee_or_uvion_or_luten_or_esium_or_klima_or_duene_or_nbaum_or_erger_or_seits_or_erina_or_euern_or_taufe_or_rieur_or_falls_or_oniak_or_eatur_or_reihe_or_stase_or_kuere_or_lysis_or_holie_or_etrag_or_petal_or_entun_or_chale_or_heuer_or_anate_or_blatt_or_sohne_or_enrat_or_inzip_or_srate_or_izung_or_tasie_or_meier_or_vater_or_zelle_or_nteur_or_artie_or_zient_or_lusst_or_erado_or_hrdet_or_rzeit_or_mtion_or_tonie_or_olide_or_ragen_or_eaner_or_olden_or_yrier_or_erran_or_stein_or_nerar_or_onier_or_orden_or_ilden_or_paeck_or_nbett_or_orale_or_ttern_or_ibung_or_ektiv_or_rname_or_aegig_or_eiden_or_ifunk_or_fuehl_or_teven_or_sabel_or_klung_or_ueler_or_ferer_or_lster_or_achte_or_lchen_or_odukt_or_nsage_or_rillo_or_offen_or_nnend_or_hesie_or_letik_or_woche_or_wusst_or_eufig_or_resse_or_olten_or_vator_or_tiefe_or_stich_or_rerde_or_nsula_or_miene_or_dwerk_or_punkt_or_wille_or_ename_or_ienst_or_eofen_or_ruest_or_stadt_or_unter_or_pokus_or_anzer_or_gader_or_htbar_or_aenig_or_manne_or_isern_or_nlese_or_rannt_or_riske_or_sfall_or_rrede_or_wegen_or_sitor_or_ginal_or_atung_or_elegt_or_illig_or_argel_or_ilich_or_olade_or_ternd_or_auben_or_edarf_or_ernis_or_tuoes_or_atist_or_teral_or_lange_or_wogen_or_toria_or_otion_or_orger_or_unnen_or_kolos_or_jacke_or_rauge_or_otter_or_truhe_or_zerei_or_perre_or_rioes_or_faser_or_barde_or_inkel_or_wanne_or_alyse_or_dalin_or_kette_or_aeche_or_aechs_or_leier_or_agant_or_ftrag_or_eater_or_ident_or_hadet_or_lanze_or_elage_or_merad_or_aetig_or_ifter_or_lerie_or_union_or_uffet_or_irche_or_atein_or_imnis_or_ehlte_or_enarm_or_aehmt_or_kurve_or_feile_or_nkelt_or_giene_or_hrbar_or_atlas_or_rraum_or_ickel_or_uehle_or_pappe_or_ufend_or_endel_or_hmung_or_elikt_or_arine_or_beral_or_tomat_or_hator_or_rster_or_lasma_or_beske_or_chlag_or_terik_or_ninum_or_tival_or_antur_or_asion_or_milie_or_ntell_or_aelde_or_lecht_or_onium_or_walze_or_strie_or_oteur_or_idakt_or_nomie_or_siert_or_nwalt_or_iatur_or_isite_or_prung_or_itage_or_danke_or_blase_or_ustag_or_minze_or_ogern_or_uetet_or_rtner_or_pfeln_or_ekeln_or_ftigt_or_hnern_or_titia_or_edner_or_nstil_or_echse_or_terde_or_tware_or_hzeit_or_logen_or_reden_or_ommel_or_abene_or_aerbt_or_nkali_or_aehnt_or_rzeug_or_oster_or_ebern_or_urgie_or_sator_or_oitus_or_zarin_or_melig_or_rkauf_or_regel_or_eraum_or_asper_or_ulver_or_saege_or_kaner_or_zsaal_or_ueter_or_tritt_or_dizin_or_agern_or_innen_or_arani_or_ratus_or_onade_or_ktose_or_dienz_or_chler_or_maeer_or_igern_or_dioes_or_llern_or_abung_or_itant_or_igmin_or_entum_or_chnet_or_sarzt_or_ssatz_or_egeln_or_ermel_or_erium_or_ignal_or_ssler_or_titel_or_pital_or_iater_or_ilika_or_reund_or_ignen_or_derei_or_elert_or_tellt_or_erobe_or_ehrte_or_tende_or_lippe_or_laden_or_istan_or_sbund_or_hosen_or_raeer_or_udern_or_uerde_or_physe_or_nzaun_or_orten_or_phage_or_amide_or_ckend_or_epfen_or_rtise_or_haken_or_gasse_or_uselt_or_muede_or_phora_or_theme_or_dsasa_or_hnhof_or_eggio_or_rfall_or_finit_or_erade_or_paeer_or_tamin_or_nsinn_or_ozial_or_sgabe_or_spakt_or_backe_or_mativ_or_nbuch_or_weihe_or_taube_or_harfe_or_raben_or_rchiv_or_opoid_or_orene_or_chsig_or_aeure_or_eecke_or_ilehe_or_lager_or_chrei_or_offel_or_erbig_or_lbige_or_rigen_or_ierer_or_ermie_or_teler_or_auwau_or_igmat_or_nital_or_ussen_or_krise_or_reben_or_eginn_or_erend_or_oenig_or_llaxe_or_nauge_or_abine_or_hitze_or_chnen_or_atene_or_ohnen_or_wolle_or_aunen_or_gynie_or_erere_or_ipane_or_aroni_or_iebig_or_tchen_or_deien_or_anist_or_hemal_or_alone_or_osion_or_buehr_or_diaer_or_ndron_or_edeln_or_ourig_or_idert_or_onell_or_chutz_or_emmen_or_liert_or_ikate_or_mator_or_trage_or_egial_or_ollen_or_annen_or_ttigt_or_fluss_or_iskus_or_aedie_or_mande_or_esten_or_entar_or_knopf_or_gebot_or_ikett_or_sband_or_llbar_or_feger_or_sgeld_or_itist_or_raube_or_erfig_or_romig_or_maske_or_limax_or_enzer_or_nsive_or_lator_or_esoll_or_puppe_or_eroid_or_leeis_or_ndend_or_nsaft_or_affen_or_rrung_or_oedig_or_ehose_or_flage_or_izier_or_ognom_or_remse_or_tgabe_or_holik_or_inaer_or_quenz_or_podie_or_aefig_or_nzial_or_eboot_or_szeit_or_geber_or_riola_or_oband_or_rhase_or_nname_or_renge_or_iisch_or_ephal_or_ngelb_or_ertum_or_nette_or_iemen_or_ndeln_or_aeule_or_haere_or_illen_or_agoge_or_bgabe_or_ronik_or_aette_or_kular_or_llele_or_kazie_or_ehlig_or_enken_or_dosis_or_etter_or_ngung_or_lnote_or_raine_or_bfall_or_manin_or_nzend_or_rhaft_or_bchen_or_enade_or_llohn_or_aehen_or_utend_or_recke_or_gskur_or_eurer_or_ewiss_or_sativ_or_kohle_or_weile_or_odore_or_hoehe_or_ieher_or_tsche_or_saffe_or_inuum_or_noten_or_shose_or_insel_or_aftig_or_kreis_or_ummer_or_mdung_or_adung_or_these_or_roete_or_xamen_or_sigen_or_dingt_or_lbild_or_nnbar_or_ecker_or_ebuch_or_osmos_or_oerer_or_rsche_or_niere_or_fugal_or_heuen_or_eruch_or_larzt_or_peise_or_spiel_or_titis_or_uskel_or_nntag_or_midal_or_herum_or_ioter_or_passt_or_horie_or_rstig_or_ndard_or_erent_or_ulant_or_polis_or_tsrat_or_rosol_or_derin_or_dtuch_or_heide_or_hoben_or_tille_or_stbar_or_egnen_or_anier_or_szene_or_gummi_or_brief_or_gsarm_or_esang_or_isten_or_rauer_or_tonig_or_ungen_or_ierte_or_orial_or_eiger_or_reude_or_rauen_or_rerin_or_lszug_or_aktur_or_nware_or_euung_or_delei_or_gonie_or_kanne_or_efern_or_minat_or_matie_or_borat_or_ikant_or_reien_or_kunst_or_stell_or_duine_or_eizer_or_nstig_or_binde_or_seele_or_eihte_or_gitis_or_losiv_or_llion_or_prall_or_rgine_or_klich_or_tuend_or_itzer_or_ucken_or_haber_or_rauch_or_odell_or_rpaar_or_demie_or_roren_or_nlauf_or_lasen_or_klave_or_faden_or_gonit_or_tante_or_poral_or_gstod_or_stuer_or_runde_or_nerei_or_hymne_or_htler_or_inner_or_stoff_or_berer_or_ubung_or_meise_or_torei_or_flich_or_lfilm_or_rware_or_typie_or_beule_or_auung_or_erine_or_oline_or_eburt_or_armee_or_rteil_or_urose_or_werer_or_kelle_or_likat_or_niole_or_rrtum_or_elter_or_agang_or_sslos_or_herie_or_toert_or_antik_or_rchat_or_dslos_or_nsatz_or_kabel_or_azial_or_isane_or_dscha_or_mpfer_or_ahler_or_ikoer_or_linea_or_serer_or_izium_or_llhin_or_sette_or_raupe_or_bilde_or_baran_or_kopie_or_hrank_or_laika_or_gerte_or_ntual_or_tuell_or_otenz_or_einde_or_eiler_or_oehre_or_nrohr_or_iator_or_enige_or_deaus_or_rfung_or_anger_or_ehrig_or_haete_or_iligt_or_rdern_or_astet_or_walbe_or_linig_or_echef_or_ranti_or_onnen_or_leder_or_dacht_or_child_or_ezept_or_linse_or_mappe_or_gerie_or_nboot_or_ttert_or_otage_or_gitim_or_ittig_or_tslos_or_stuem_or_lzene_or_under_or_holen_or_ietig_or_iefel_or_rilla_or_gnung_or_iotin_or_ntrik_or_menge_or_inken_or_gment_or_eiend_or_oikum_or_retto_or_nhalt_or_zbuch_or_icium_or_messe_or_ranze_or_rdame_or_irata_or_epfig_or_endet_or_edhof_or_lasse_or_ndium_or_masie_or_ylose_or_evant_or_aerig_or_nkung_or_nacht_or_rnova_or_naise_or_andum_or_platz_or_ehner_or_delle_or_nteil_or_ausch_or_arist_or_ppern_or_ermin_or_redit_or_ilope_or_ntrum_or_dende_or_rgabe_or_erenz_or_chist_or_erken_or_ionat_or_kerze_or_fremd_or_sende_or_torig_or_sweis_or_esend_or_netik_or_ilipp_or_rdist_or_forte_or_illin_or_oemen_or_zeher_or_leuse_or_stube_or_bisch_or_etsel_or_ndern_or_bauer_or_schef_or_antin_or_tikum_or_ision_or_ultra_or_enter_or_ucher_or_nnase_or_antie_or_etzig_or_inbar_or_ltigt_or_erzug_or_herei_or_mpelt_or_acken_or_nioes_or_riori_or_sibel_or_irkel_or_sruhe_or_udung_or_ofilm_or_ehens_or_hanie_or_ragin_or_lsion_or_llend_or_hmend_or_nster_or_chenk_or_ndite_or_inade_or_efahr_or_zienz_or_onste_or_motor_or_tgelt_or_rapie_or_dinge_or_lzahl_or_besen_or_rdine_or_mogen_or_nhaus_or_lgbar_or_adeso_or_atzer_or_ontal_or_wende_or_ebild_or_auern_or_rehen_or_udeln_or_etnam_or_abatt_or_fonds_or_eherd_or_graph_or_stole_or_erbau_or_olbar_or_marin_or_oebel_or_oerig_or_kwall_or_ptote_or_falke_or_erzen_or_ugner_or_rsage_or_nerie_or_kfrei_or_uloes_or_idbar_or_hrift_or_merig_or_htuer_or_nagel_or_oldat_or_aktie_or_kator_or_thmus_or_plane_or_amese_or_effel_or_zfall_or_oeser_or_angel_or_ohner_or_inarm_or_lytik_or_ueden_or_konto_or_sente_or_doxon_or_sreif_or_chsel_or_getik_or_isode_or_unken_or_rmann_or_einen_or_soral_or_angst_or_riole_or_genie_or_gnore_or_rfolg_or_ftler_or_isend_or_hafen_or_reppe_or_ssard_or_elade_or_ntike_or_nasie_or_duite_or_rrbar_or_nkern_or_eiert_or_frist_or_ronie_or_naehe_or_palme_or_rogen_or_ilien_or_kreuz_or_falle_or_llher_or_niake_or_hidee_or_saeer_or_nepfe_or_salge_or_nigen_or_buero_or_kerei_or_izial_or_altet_or_ojekt_or_pfote_or_ffung_or_neien_or_erter_or_assel_or_ildet_or_nativ_or_alide_or_uegel_or_tickt_or_elist_or_etzer_or_aedel_or_heker_or_uttel_or_tafel_or_stion_or_ontag_or_ubine_or_aeuen_or_bombe_or_ritum_or_arone_or_uranz_or_tmann_or_eador_or_riker_or_oblem_or_ugung_or_kutiv_or_egelt_or_stent_or_tange_or_eflig_or_ebene_or_atzen_or_lrate_or_togen_or_neipe_or_nente_or_eorit_or_innte_or_fikat_or_gwerk_or_idial_or_rafie_or_nario_or_nhang_or_otten_or_gsort_or_ewort_or_rkose_or_elden_or_exual_or_kfest_or_zugen_or_steak_or_webel_or_lpeln_or_timme_or_elzen_or_enzug_or_arsch_or_elich_or_emden_or_gonal_or_eleon_or_fahrt_or_nztee_or_immen_or_ugium_or_rplan_or_plage_or_ttags_or_nwelt_or_osoph_or_rdeon_or_asmus_or_mfang_or_aften_or_ektur_or_nholz_or_lesen_or_utral_or_yamid_or_rbild_or_ngfer_or_atine_or_splan_or_eugen_or_roxid_or_stigt_or_hlbar_or_lbuch_or_lurge_or_hrase_or_huetz_or_ormel_or_nitiv_or_ekure_or_edern_or_selig_or_nzola_or_datum_or_seweg_or_zglas_or_sinnt_or_ibsel_or_tsnah_or_oloid_or_ebnis_or_inenz_or_ibrig_or_ralik_or_nstel_or_ditor_or_ogiro_or_htige_or_butte_or_trunk_or_rsinn_or_obelt_or_rsuch_or_lwert_or_aktiv_or_habet_or_wader_or_ostik_or_sstil_or_etenz_or_palte_or_ppeln_or_ohama_or_nztag_or_orsam_or_nannt_or_twurf_or_thone_or_entil_or_pinst_or_icken_or_stoss_or_aeunt_or_ehaft_or_laffe_or_errat_or_oskop_or_nnsel_or_iplin_or_raxie_or_amera_or_etent_or_gativ_or_nseln_or_nicht_or_korps_or_nritt_or_ataxe_or_turat_or_ldbar_or_ruehe_or_imato_or_reile_or_mobil_or_kurat_or_aktus_or_irbel_or_dikal_or_rhose_or_menal_or_astig_or_typus_or_orfen_or_tenne_or_uativ_or_rbung_or_narde_or_ocker_or_tuose_or_elrot_or_trone_or_aeber_or_krank_or_tarrh_or_inale_or_figur_or_etlos_or_ngert_or_inate_or_teher_or_hsene_or_nkult_or_enlos_or_erite_or_ranto_or_aumen_or_pator_or_aerfe_or_trose_or_garde_or_entag_or_aster_or_chbar_or_lkern_or_ueten_or_hmann_or_rbuch_or_arlos_or_weite_or_fikal_or_enese_or_gesie_or_ziant_or_ensch_or_tande_or_hlend_or_icato_or_schad_or_wurst_or_otent_or_olung_or_eseln_or_eptiv_or_kehrt_or_racht_or_ssitz_or_rsell_or_rwerb_or_romat_or_liege_or_hwuer_or_lilie_or_lexus_or_egese_or_ndent_or_datio_or_rchef_or_dagio_or_krebs_or_vitas_or_sbote_or_malig_or_diant_or_sbild_or_kapen_or_erste_or_oidal_or_zigen_or_nftig_or_igene_or_ergen_or_rophe_or_ehnen_or_olfen_or_binat_or_ierde_or_enkig_or_laner_or_enrot_or_ntreu_or_arier_or_unist_or_ofrei_or_ldler_or_lsine_or_lglas_or_typer_or_dbahn_or_alier_or_ifend_or_ophal_or_eider_or_etont_or_zidal_or_piell_or_esung_or_sport_or_aloel_or_ilanz_or_hobie_or_lrute_or_onial_or_ettel_or_rnixe_or_litis_or_ldigt_or_rofen_or_bonat_or_lagge_or_effen_or_divie_or_iment_or_aemie_or_lader_or_flege_or_rgung_or_rener_or_itial_or_orter_or_iberi_or_irren_or_fonat_or_ausen_or_elenk_or_olith_or_narbe_or_ragus_or_rkopf_or_suche_or_nslos_or_motte_or_rbial_or_aikum_or_niaer_or_schau_or_rlegt_or_heber_or_awine_or_ntium_or_album_or_sgang_or_alung_or_osser_or_oedel_or_winde_or_stige_or_asium_or_lslos_or_idend_or_terne_or_lstab_or_agion_or_entik_or_aurus_or_ippen_or_ffekt_or_azone_or_eubig_or_srede_or_ftung_or_artei_or_stete_or_gdose_or_taner_or_olyse_or_nkend_or_loewe_or_uenze_or_tivus_or_ngern_or_efelt_or_dstel_or_xikon_or_serum_or_nabel_or_virat_or_terat_or_hloss_or_minal_or_waffe_or_malie_or_ratze_or_inrot_or_adier_or_inage_or_iebel_or_iodik_or_ahmen_or_weiss_or_exter_or_rrend_or_oheit_or_lsalz_or_stend_or_kdich_or_epper_or_zipal_or_nfrei_or_ifung_or_daner_or_tinta_or_kunft_or_kater_or_uefer_or_loget_or_libel_or_tanne_or_igone_or_preis_or_iesen_or_dabel_or_elben_or_organ_or_odial_or_iduum_or_aumig_or_uedet_or_honie_or_esion_or_amann_or_theke_or_elett_or_turie_or_velle_or_lerde_or_ittet_or_echte_or_zeria_or_tudio_or_itaen_or_einer_or_aelte_or_horik_or_smann_or_ltbar_or_ifuge_or_nkurs_or_oboot_or_chlaf_or_hodox_or_twoch_or_einig_or_kuppe_or_ponie_or_uecke_or_deres_or_evoll_or_buche_or_efett_or_ierin_or_unker_or_sheit_or_tband_or_okope_or_ellte_or_erfer_or_elern_or_taxis_or_erfel_or_rokat_or_nlang_or_lonie_or_urell_or_uware_or_melle_or_ezise_or_chtel_or_avane_or_ipode_or_chied_or_esist_or_ormat_or_butiv_or_mpere_or_szenz_or_iliar_or_hndet_or_nosse_or_nzlos_or_alent_or_alenz_or_atlos_or_kulum_or_aille_or_kkord_or_herte_or_szahl_or_lauge_or_sular_or_mbule_or_affee_or_ysmus_or_xuell_or_iance_or_tonne_or_itert_or_erlei_or_kyone_or_ottes_or_rfekt_or_uerer_or_elder_or_emend_or_uefen_or_kgang_or_uehlt_or_itzig_or_eabel_or_alzit_or_faess_or_gegen_or_davit_or_omeda_or_dernd_or_enoes_or_lehne_or_nelle_or_unger_or_lizei_or_badet_or_enehm_or_etreu_or_efall_or_ezirk_or_ffner_or_ustiz_or_alast_or_vkind_or_erten_or_ieter_or_nkuli_or_egabt_or_ikler_or_nerat_or_natur_or_nzert_or_ntage_or_nzeit_or_digma_or_onetz_or_tteln_or_rende_or_andis_or_anoid_or_itual_or_chirr_or_swahn_or_ndete_or_htsam_or_mmend_or_ssimo_or_lings_or_iearm_or_rguss_or_mmern_or_estil_or_ebeet_or_chmal_or_ivist_or_llare_or_dient_or_kwerk_or_evanz_or_lmuse_or_erber_or_onage_or_spora
|   suffix_phoncat5 = KCCLK_or_DCLCK_or_CDCLC_or_KCKCA_or_CACKC_or_CCCCD_or_LAKCC_or_ADCLC_or_CKACK_or_LCKAL_or_AKCLK_or_ACKCK_or_KCKKC_or_LCCKA_or_CDAKC_or_DAKCC_or_CAKCC_or_DCCKA_or_CCKCN_or_CCDAK_or_CDCDC_or_CLLCC_or_KKCCK_or_AKCCK_or_CLCCD_or_CLKCK_or_KCCDA_or_NCDCK_or_DCLKC_or_CLCDC_or_KLCAC_or_LALCC_or_KCKAC_or_LCCCD_or_ACCDC_or_LKCCL_or_CLCAC_or_DCKCK_or_ACCLC_or_CLKCD_or_CCCCK_or_KDCKC_or_CCDCC_or_CLKCA_or_DLCKC_or_KCCDK_or_CCCDK_or_LAKCK_or_ALKCC_or_ACKCL_or_CLCCC_or_CCCLK_or_CAKCD_or_ACDKC_or_KAKCC_or_CLALL_or_NCCLC_or_AKCLC_or_CLALC_or_KALKC_or_KCADC_or_CCKAL_or_CKKCK_or_ACDCD_or_LCDKC_or_KCNCK_or_CCKDC_or_CCADC_or_CLALK_or_CKLCK_or_LACLC_or_CALCK_or_CCALC_or_LCDCK_or_LCLCD_or_KCLAL_or_KCDCL_or_CDCCK_or_LCKDC_or_ALCAC_or_KCKAK_or_LACLK_or_ALKCA_or_LCCCK_or_LCALC_or_LCKCN_or_KCALK_or_AKCCC_or_LCCLK_or_CCCDA_or_DCKCD_or_KCACL_or_CALCL_or_CDACL_or_LACKC_or_CACDC_or_ACCKC_or_KCCCD_or_KALCK_or_LCCDA_or_ACLCL_or_ALCLL_or_LAKKC_or_CAKCA_or_KCLNC_or_LCLAD_or_KKAKC_or_KCCLA_or_NCLCK_or_CLCKA: prima (166.0/89.0)
|   suffix_phoncat5 = KCCKC: prima (234.0/85.0)
|   suffix_phoncat5 = CKCKC: prima (189.0/58.0)
|   suffix_phoncat5 = CLCKC: prima (395.0/170.0)
|   suffix_phoncat5 = AKCKC: prima (6.0/1.0)
|   suffix_phoncat5 = CKCCK: prima (98.0/25.0)
|   suffix_phoncat5 = LCLCK: paenultima (78.0/9.0)
|   suffix_phoncat5 = CCLKC: prima (26.0/16.0)
|   suffix_phoncat5 = LCKCC: prima (74.0/38.0)
|   suffix_phoncat5 = CCCDC: prima (12.0/7.0)
|   suffix_phoncat5 = CCKCK: prima (93.0/17.0)
|   suffix_phoncat5 = LALLC: ultima (14.0/2.0)
|   suffix_phoncat5 = KCKCK: prima (33.0/16.0)
|   suffix_phoncat5 = CLCLC: ultima (106.0/47.0)
|   suffix_phoncat5 = KCCCK: prima (5.0/1.0)
|   suffix_phoncat5 = KCCDC: prima (23.0/9.0)
|   suffix_phoncat5 = KCCLC: prima (116.0/75.0)
|   suffix_phoncat5 = CCKCC: prima (141.0/68.0)
|   suffix_phoncat5 = CCLLC: ultima (15.0/1.0)
|   suffix_phoncat5 = CCLCK: prima (175.0/48.0)
|   suffix_phoncat5 = LCCKC: prima (31.0/5.0)
|   suffix_phoncat5 = CCCLC: prima (56.0/28.0)
|   suffix_phoncat5 = CDCKC: prima (69.0/22.0)
|   suffix_phoncat5 = CALKC: ultima (10.0/5.0)
|   suffix_phoncat5 = CCDCK: prima (36.0)
|   suffix_phoncat5 = CCCKC: prima (80.0/29.0)
|   suffix_phoncat5 = LLCKC: paenultima (14.0/6.0)
|   suffix_phoncat5 = CKCDC: prima (8.0/2.0)
|   suffix_phoncat5 = CCLCC: prima (12.0/4.0)
|   suffix_phoncat5 = CKAKC: prima (20.0/7.0)
|   suffix_phoncat5 = CLCLL: antepaenultima (5.0/2.0)
|   suffix_phoncat5 = CKCLC: ultima (62.0/30.0)
|   suffix_phoncat5 = CALLC: ultima (9.0)
|   suffix_phoncat5 = DCCKC: prima (25.0/5.0)
|   suffix_phoncat5 = KCKCC: prima (76.0/35.0)
|   suffix_phoncat5 = KCLCK: paenultima (51.0/21.0)
|   suffix_phoncat5 = KCAKC: prima (18.0/7.0)
|   suffix_phoncat5 = KCDCK: prima (11.0)
|   suffix_phoncat5 = CCKCD: prima (2.0/1.0)
|   suffix_phoncat5 = DCCLC: paenultima (13.0/4.0)
|   suffix_phoncat5 = KACKC: paenultima (5.0/2.0)
|   suffix_phoncat5 = ACDCK: prima (2.0)
|   suffix_phoncat5 = DKCKC: antepaenultima (2.0/1.0)
|   suffix_phoncat5 = KCCCL: prima (5.0/1.0)
|   suffix_phoncat5 = LCCDC: prima (2.0/1.0)
|   suffix_phoncat5 = ALCLC: ultima (7.0/2.0)
|   suffix_phoncat5 = CLAKC: prima (1.0)
|   suffix_phoncat5 = CKCCL: ultima (30.0/19.0)
|   suffix_phoncat5 = LCLCL: ultima (49.0/22.0)
|   suffix_phoncat5 = LCLCC: ultima (7.0/2.0)
|   suffix_phoncat5 = LCLLC: ultima (32.0/2.0)
|   suffix_phoncat5 = LCCLC: paenultima (39.0/17.0)
|   suffix_phoncat5 = KALLC: ultima (1.0)
|   suffix_phoncat5 = LCKCK: antepaenultima (22.0/14.0)
|   suffix_phoncat5 = KCLLC: ultima (6.0/1.0)
|   suffix_phoncat5 = CCDKC: prima (27.0/10.0)
|   suffix_phoncat5 = CCKAK: prima (5.0)
|   suffix_phoncat5 = CADCK: prima (4.0)
|   suffix_phoncat5 = LCLKC: antepaenultima (40.0/12.0)
|   suffix_phoncat5 = LCKCD: ultima (7.0)
|   suffix_phoncat5 = KCDKC: prima (6.0)
|   suffix_phoncat5 = KCCKA: prima (5.0/1.0)
|   suffix_phoncat5 = ACKCC: prima (9.0/1.0)
|   suffix_phoncat5 = LLCLC: ultima (14.0/1.0)
|   suffix_phoncat5 = CLCLK: antepaenultima (14.0/3.0)
|   suffix_phoncat5 = CKCAK: prima (15.0/2.0)
|   suffix_phoncat5 = ALCKC: prima (8.0/3.0)
|   suffix_phoncat5 = DCKCC: prima (18.0/4.0)
|   suffix_phoncat5 = CLLCK: paenultima (11.0)
|   suffix_phoncat5 = ACLKC: prima (0.0)
|   suffix_phoncat5 = KLCKC: paenultima (4.0/1.0)
|   suffix_phoncat5 = LCADC: prima (4.0/1.0)
|   suffix_phoncat5 = CKCKA: prima (8.0/3.0)
|   suffix_phoncat5 = LCKCL: ultima (14.0/2.0)
|   suffix_phoncat5 = CAKCK: prima (5.0/1.0)
|   suffix_phoncat5 = KCKCL: ultima (8.0/2.0)
|   suffix_phoncat5 = CCKCL: prima (12.0/7.0)
|   suffix_phoncat5 = LALKC: antepaenultima (5.0/1.0)
|   suffix_phoncat5 = ADCKC: prima (7.0/2.0)
|   suffix_phoncat5 = CACLC: prima (7.0/3.0)
|   suffix_phoncat5 = KCLCL: ultima (11.0/5.0)
|   suffix_phoncat5 = CLLCL: paenultima (5.0/1.0)
|   suffix_phoncat5 = CCLCL: ultima (27.0/14.0)
|   suffix_phoncat5 = LKCKC: prima (9.0/3.0)
|   suffix_phoncat5 = KCALC: prima (8.0/2.0)
|   suffix_phoncat5 = CDKCC: prima (10.0/4.0)
|   suffix_phoncat5 = CCKCA: prima (6.0/4.0)
|   suffix_phoncat5 = ACLCK: prima (7.0)
|   suffix_phoncat5 = CLKCC: ultima (8.0/4.0)
|   suffix_phoncat5 = CKCCC: prima (13.0/6.0)
|   suffix_phoncat5 = KCLCC: prima (14.0/2.0)
|   suffix_phoncat5 = CLCCK: prima (13.0/3.0)
|   suffix_phoncat5 = KACLC: prima (1.0)
|   suffix_phoncat5 = LKCLC: ultima (7.0)
|   suffix_phoncat5 = KCLKC: paenultima (3.0/1.0)
|   suffix_phoncat5 = CCCKA: antepaenultima (6.0/3.0)
|   suffix_phoncat5 = DCCDC: prima (5.0/1.0)
|   suffix_phoncat5 = CKCCD: antepaenultima (7.0/4.0)
|   suffix_phoncat5 = CLCCL: prima (0.0)
|   suffix_phoncat5 = KCKCN: prima (1.0)
|   suffix_phoncat5 = KCKCD: ultima (5.0)
|   suffix_phoncat5 = LCKCA: prima (7.0/3.0)
suffix5 = svoll: antepaenultima (9.0/3.0)
suffix5 = erung
|   suffix_phoncat5 = KCCLK_or_DCLCK_or_CDCLC_or_KCKCA_or_CACKC_or_CCCCD_or_LAKCC_or_ADCLC_or_CKACK_or_LCKAL_or_AKCLK_or_ACKCK_or_KCKKC_or_LCCKA_or_CDAKC_or_DAKCC_or_CAKCC_or_DCCKA_or_CCKCN_or_CCDAK_or_CDCDC_or_CLLCC_or_KKCCK_or_AKCCK_or_CLCCD_or_CLKCK_or_KCCDA_or_NCDCK_or_DCLKC_or_CLCDC_or_KLCAC_or_LALCC_or_KCKAC_or_LCCCD_or_ACCDC_or_LKCCL_or_CLCAC_or_DCKCK_or_ACCLC_or_CLKCD_or_CCCCK_or_KDCKC_or_CCDCC_or_CLKCA_or_DLCKC_or_KCCDK_or_CCCDK_or_LAKCK_or_ALKCC_or_ACKCL_or_CLCCC_or_CCCLK_or_CAKCD_or_ACDKC_or_KAKCC_or_CLALL_or_NCCLC_or_AKCLC_or_CLALC_or_KALKC_or_KCADC_or_CCKAL_or_CKKCK_or_ACDCD_or_LCDKC_or_KCNCK_or_CCKDC_or_CCADC_or_CLALK_or_CKLCK_or_LACLC_or_CALCK_or_CCALC_or_LCDCK_or_LCLCD_or_KCLAL_or_KCDCL_or_CDCCK_or_LCKDC_or_ALCAC_or_KCKAK_or_LACLK_or_ALKCA_or_LCCCK_or_LCALC_or_LCKCN_or_KCALK_or_AKCCC_or_LCCLK_or_CCCDA_or_DCKCD_or_KCACL_or_CALCL_or_CDACL_or_LACKC_or_CACDC_or_ACCKC_or_KCCCD_or_KALCK_or_LCCDA_or_ACLCL_or_ALCLL_or_LAKKC_or_CAKCA_or_KCLNC_or_LCLAD_or_KKAKC_or_KCCLA_or_NCLCK_or_CLCKA: paenultima (0.0)
|   suffix_phoncat5 = KCCKC: paenultima (0.0)
|   suffix_phoncat5 = CKCKC: antepaenultima (89.0/41.0)
|   suffix_phoncat5 = CLCKC: paenultima (64.0/10.0)
|   suffix_phoncat5 = AKCKC: prima (1.0)
|   suffix_phoncat5 = CKCCK: paenultima (0.0)
|   suffix_phoncat5 = LCLCK: paenultima (0.0)
|   suffix_phoncat5 = CCLKC: paenultima (0.0)
|   suffix_phoncat5 = LCKCC: paenultima (0.0)
|   suffix_phoncat5 = CCCDC: paenultima (0.0)
|   suffix_phoncat5 = CCKCK: paenultima (0.0)
|   suffix_phoncat5 = LALLC: paenultima (0.0)
|   suffix_phoncat5 = KCKCK: paenultima (0.0)
|   suffix_phoncat5 = CLCLC: paenultima (0.0)
|   suffix_phoncat5 = KCCCK: paenultima (0.0)
|   suffix_phoncat5 = KCCDC: paenultima (0.0)
|   suffix_phoncat5 = KCCLC: paenultima (0.0)
|   suffix_phoncat5 = CCKCC: paenultima (0.0)
|   suffix_phoncat5 = CCLLC: paenultima (0.0)
|   suffix_phoncat5 = CCLCK: paenultima (0.0)
|   suffix_phoncat5 = LCCKC: paenultima (0.0)
|   suffix_phoncat5 = CCCLC: paenultima (0.0)
|   suffix_phoncat5 = CDCKC: paenultima (0.0)
|   suffix_phoncat5 = CALKC: paenultima (0.0)
|   suffix_phoncat5 = CCDCK: paenultima (0.0)
|   suffix_phoncat5 = CCCKC: paenultima (0.0)
|   suffix_phoncat5 = LLCKC: paenultima (1.0)
|   suffix_phoncat5 = CKCDC: paenultima (0.0)
|   suffix_phoncat5 = CCLCC: paenultima (0.0)
|   suffix_phoncat5 = CKAKC: paenultima (0.0)
|   suffix_phoncat5 = CLCLL: paenultima (0.0)
|   suffix_phoncat5 = CKCLC: paenultima (0.0)
|   suffix_phoncat5 = CALLC: paenultima (0.0)
|   suffix_phoncat5 = DCCKC: paenultima (0.0)
|   suffix_phoncat5 = KCKCC: paenultima (0.0)
|   suffix_phoncat5 = KCLCK: paenultima (0.0)
|   suffix_phoncat5 = KCAKC: paenultima (0.0)
|   suffix_phoncat5 = KCDCK: paenultima (0.0)
|   suffix_phoncat5 = CCKCD: paenultima (0.0)
|   suffix_phoncat5 = DCCLC: paenultima (0.0)
|   suffix_phoncat5 = KACKC: paenultima (0.0)
|   suffix_phoncat5 = ACDCK: paenultima (0.0)
|   suffix_phoncat5 = DKCKC: antepaenultima (9.0/4.0)
|   suffix_phoncat5 = KCCCL: paenultima (0.0)
|   suffix_phoncat5 = LCCDC: paenultima (0.0)
|   suffix_phoncat5 = ALCLC: paenultima (0.0)
|   suffix_phoncat5 = CLAKC: paenultima (0.0)
|   suffix_phoncat5 = CKCCL: paenultima (0.0)
|   suffix_phoncat5 = LCLCL: paenultima (0.0)
|   suffix_phoncat5 = LCLCC: paenultima (0.0)
|   suffix_phoncat5 = LCLLC: paenultima (0.0)
|   suffix_phoncat5 = LCCLC: paenultima (0.0)
|   suffix_phoncat5 = KALLC: paenultima (0.0)
|   suffix_phoncat5 = LCKCK: paenultima (0.0)
|   suffix_phoncat5 = KCLLC: paenultima (0.0)
|   suffix_phoncat5 = CCDKC: paenultima (0.0)
|   suffix_phoncat5 = CCKAK: paenultima (0.0)
|   suffix_phoncat5 = CADCK: paenultima (0.0)
|   suffix_phoncat5 = LCLKC: paenultima (0.0)
|   suffix_phoncat5 = LCKCD: paenultima (0.0)
|   suffix_phoncat5 = KCDKC: paenultima (0.0)
|   suffix_phoncat5 = KCCKA: paenultima (0.0)
|   suffix_phoncat5 = ACKCC: paenultima (0.0)
|   suffix_phoncat5 = LLCLC: paenultima (0.0)
|   suffix_phoncat5 = CLCLK: paenultima (0.0)
|   suffix_phoncat5 = CKCAK: paenultima (0.0)
|   suffix_phoncat5 = ALCKC: paenultima (3.0)
|   suffix_phoncat5 = DCKCC: paenultima (0.0)
|   suffix_phoncat5 = CLLCK: paenultima (0.0)
|   suffix_phoncat5 = ACLKC: paenultima (0.0)
|   suffix_phoncat5 = KLCKC: paenultima (0.0)
|   suffix_phoncat5 = LCADC: paenultima (0.0)
|   suffix_phoncat5 = CKCKA: paenultima (0.0)
|   suffix_phoncat5 = LCKCL: paenultima (0.0)
|   suffix_phoncat5 = CAKCK: paenultima (0.0)
|   suffix_phoncat5 = KCKCL: paenultima (0.0)
|   suffix_phoncat5 = CCKCL: paenultima (0.0)
|   suffix_phoncat5 = LALKC: paenultima (0.0)
|   suffix_phoncat5 = ADCKC: paenultima (0.0)
|   suffix_phoncat5 = CACLC: paenultima (0.0)
|   suffix_phoncat5 = KCLCL: paenultima (0.0)
|   suffix_phoncat5 = CLLCL: paenultima (0.0)
|   suffix_phoncat5 = CCLCL: paenultima (0.0)
|   suffix_phoncat5 = LKCKC: paenultima (0.0)
|   suffix_phoncat5 = KCALC: paenultima (0.0)
|   suffix_phoncat5 = CDKCC: paenultima (0.0)
|   suffix_phoncat5 = CCKCA: paenultima (0.0)
|   suffix_phoncat5 = ACLCK: paenultima (0.0)
|   suffix_phoncat5 = CLKCC: paenultima (0.0)
|   suffix_phoncat5 = CKCCC: paenultima (0.0)
|   suffix_phoncat5 = KCLCC: paenultima (0.0)
|   suffix_phoncat5 = CLCCK: paenultima (0.0)
|   suffix_phoncat5 = KACLC: paenultima (0.0)
|   suffix_phoncat5 = LKCLC: paenultima (0.0)
|   suffix_phoncat5 = KCLKC: paenultima (0.0)
|   suffix_phoncat5 = CCCKA: paenultima (0.0)
|   suffix_phoncat5 = DCCDC: paenultima (0.0)
|   suffix_phoncat5 = CKCCD: paenultima (0.0)
|   suffix_phoncat5 = CLCCL: paenultima (0.0)
|   suffix_phoncat5 = KCKCN: paenultima (0.0)
|   suffix_phoncat5 = KCKCD: paenultima (0.0)
|   suffix_phoncat5 = LCKCA: paenultima (0.0)
suffix5 = nlich: prima (8.0/1.0)
suffix5 = alten: prima (20.0/6.0)
suffix5 = ologe: paenultima (7.0)
suffix5 = chtig: prima (27.0/2.0)
suffix5 = gehen: antepaenultima (18.0/9.0)
suffix5 = echen: prima (14.0/8.0)
suffix5 = theit: prima (25.0/6.0)
suffix5 = tlich: prima (55.0/13.0)
suffix5 = ittel: prima (13.0/3.0)
suffix5 = ommen: prima (28.0/8.0)
suffix5 = ieren: paenultima (449.0/45.0)
suffix5 = rlich: prima (22.0/11.0)
suffix5 = nheit: antepaenultima (50.0/8.0)
suffix5 = hkeit: prima (77.0/27.0)
suffix5 = inden: prima (9.0/4.0)
suffix5 = chend: prima (8.0)
suffix5 = mmung: prima (6.0/1.0)
suffix5 = nahme: prima (17.0/4.0)
suffix5 = tigen: antepaenultima (30.0/7.0)
suffix5 = chaft: prima (33.0/5.0)
suffix5 = alter: prima (10.0/2.0)
suffix5 = iehen: antepaenultima (11.0/6.0)
suffix5 = ndung: prima (18.0/7.0)
suffix5 = dlich: prima (22.0/7.0)
suffix5 = chung: prima (36.0/18.0)
suffix5 = ligen: antepaenultima (8.0)
suffix5 = asser: prima (12.0/3.0)
suffix5 = ianer: paenultima (5.0)
suffix5 = schen: prima (13.0/3.0)
suffix5 = gkeit: prima (187.0/16.0)
suffix5 = meter: paenultima (18.0/2.0)
suffix5 = hisch: paenultima (19.0/1.0)
suffix5 = nisch: paenultima (34.0/8.0)
suffix5 = lerin: prima (5.0)
suffix5 = swert: antepaenultima (11.0/3.0)
suffix5 = ystem: prima (5.0/1.0)
suffix5 = tzung: antepaenultima (17.0/10.0)
suffix5 = risch
|   suffix_phoncat5 = KCCLK_or_DCLCK_or_CDCLC_or_KCKCA_or_CACKC_or_CCCCD_or_LAKCC_or_ADCLC_or_CKACK_or_LCKAL_or_AKCLK_or_ACKCK_or_KCKKC_or_LCCKA_or_CDAKC_or_DAKCC_or_CAKCC_or_DCCKA_or_CCKCN_or_CCDAK_or_CDCDC_or_CLLCC_or_KKCCK_or_AKCCK_or_CLCCD_or_CLKCK_or_KCCDA_or_NCDCK_or_DCLKC_or_CLCDC_or_KLCAC_or_LALCC_or_KCKAC_or_LCCCD_or_ACCDC_or_LKCCL_or_CLCAC_or_DCKCK_or_ACCLC_or_CLKCD_or_CCCCK_or_KDCKC_or_CCDCC_or_CLKCA_or_DLCKC_or_KCCDK_or_CCCDK_or_LAKCK_or_ALKCC_or_ACKCL_or_CLCCC_or_CCCLK_or_CAKCD_or_ACDKC_or_KAKCC_or_CLALL_or_NCCLC_or_AKCLC_or_CLALC_or_KALKC_or_KCADC_or_CCKAL_or_CKKCK_or_ACDCD_or_LCDKC_or_KCNCK_or_CCKDC_or_CCADC_or_CLALK_or_CKLCK_or_LACLC_or_CALCK_or_CCALC_or_LCDCK_or_LCLCD_or_KCLAL_or_KCDCL_or_CDCCK_or_LCKDC_or_ALCAC_or_KCKAK_or_LACLK_or_ALKCA_or_LCCCK_or_LCALC_or_LCKCN_or_KCALK_or_AKCCC_or_LCCLK_or_CCCDA_or_DCKCD_or_KCACL_or_CALCL_or_CDACL_or_LACKC_or_CACDC_or_ACCKC_or_KCCCD_or_KALCK_or_LCCDA_or_ACLCL_or_ALCLL_or_LAKKC_or_CAKCA_or_KCLNC_or_LCLAD_or_KKAKC_or_KCCLA_or_NCLCK_or_CLCKA: paenultima (0.0)
|   suffix_phoncat5 = KCCKC: paenultima (0.0)
|   suffix_phoncat5 = CKCKC: prima (33.0/13.0)
|   suffix_phoncat5 = CLCKC: paenultima (39.0/2.0)
|   suffix_phoncat5 = AKCKC: prima (1.0)
|   suffix_phoncat5 = CKCCK: paenultima (0.0)
|   suffix_phoncat5 = LCLCK: paenultima (0.0)
|   suffix_phoncat5 = CCLKC: paenultima (0.0)
|   suffix_phoncat5 = LCKCC: paenultima (0.0)
|   suffix_phoncat5 = CCCDC: paenultima (0.0)
|   suffix_phoncat5 = CCKCK: paenultima (0.0)
|   suffix_phoncat5 = LALLC: paenultima (0.0)
|   suffix_phoncat5 = KCKCK: paenultima (0.0)
|   suffix_phoncat5 = CLCLC: paenultima (0.0)
|   suffix_phoncat5 = KCCCK: paenultima (0.0)
|   suffix_phoncat5 = KCCDC: paenultima (0.0)
|   suffix_phoncat5 = KCCLC: paenultima (0.0)
|   suffix_phoncat5 = CCKCC: paenultima (0.0)
|   suffix_phoncat5 = CCLLC: paenultima (0.0)
|   suffix_phoncat5 = CCLCK: paenultima (0.0)
|   suffix_phoncat5 = LCCKC: paenultima (7.0/2.0)
|   suffix_phoncat5 = CCCLC: paenultima (0.0)
|   suffix_phoncat5 = CDCKC: paenultima (0.0)
|   suffix_phoncat5 = CALKC: paenultima (0.0)
|   suffix_phoncat5 = CCDCK: paenultima (0.0)
|   suffix_phoncat5 = CCCKC: paenultima (1.0)
|   suffix_phoncat5 = LLCKC: paenultima (0.0)
|   suffix_phoncat5 = CKCDC: paenultima (0.0)
|   suffix_phoncat5 = CCLCC: paenultima (0.0)
|   suffix_phoncat5 = CKAKC: paenultima (0.0)
|   suffix_phoncat5 = CLCLL: paenultima (0.0)
|   suffix_phoncat5 = CKCLC: paenultima (0.0)
|   suffix_phoncat5 = CALLC: paenultima (0.0)
|   suffix_phoncat5 = DCCKC: paenultima (0.0)
|   suffix_phoncat5 = KCKCC: paenultima (0.0)
|   suffix_phoncat5 = KCLCK: paenultima (0.0)
|   suffix_phoncat5 = KCAKC: paenultima (0.0)
|   suffix_phoncat5 = KCDCK: paenultima (0.0)
|   suffix_phoncat5 = CCKCD: paenultima (0.0)
|   suffix_phoncat5 = DCCLC: paenultima (0.0)
|   suffix_phoncat5 = KACKC: paenultima (0.0)
|   suffix_phoncat5 = ACDCK: paenultima (0.0)
|   suffix_phoncat5 = DKCKC: paenultima (0.0)
|   suffix_phoncat5 = KCCCL: paenultima (0.0)
|   suffix_phoncat5 = LCCDC: paenultima (0.0)
|   suffix_phoncat5 = ALCLC: paenultima (0.0)
|   suffix_phoncat5 = CLAKC: paenultima (0.0)
|   suffix_phoncat5 = CKCCL: paenultima (0.0)
|   suffix_phoncat5 = LCLCL: paenultima (0.0)
|   suffix_phoncat5 = LCLCC: paenultima (0.0)
|   suffix_phoncat5 = LCLLC: paenultima (0.0)
|   suffix_phoncat5 = LCCLC: paenultima (0.0)
|   suffix_phoncat5 = KALLC: paenultima (0.0)
|   suffix_phoncat5 = LCKCK: paenultima (0.0)
|   suffix_phoncat5 = KCLLC: paenultima (0.0)
|   suffix_phoncat5 = CCDKC: paenultima (0.0)
|   suffix_phoncat5 = CCKAK: paenultima (0.0)
|   suffix_phoncat5 = CADCK: paenultima (0.0)
|   suffix_phoncat5 = LCLKC: paenultima (0.0)
|   suffix_phoncat5 = LCKCD: paenultima (0.0)
|   suffix_phoncat5 = KCDKC: paenultima (0.0)
|   suffix_phoncat5 = KCCKA: paenultima (0.0)
|   suffix_phoncat5 = ACKCC: paenultima (0.0)
|   suffix_phoncat5 = LLCLC: paenultima (0.0)
|   suffix_phoncat5 = CLCLK: paenultima (0.0)
|   suffix_phoncat5 = CKCAK: paenultima (0.0)
|   suffix_phoncat5 = ALCKC: paenultima (0.0)
|   suffix_phoncat5 = DCKCC: paenultima (0.0)
|   suffix_phoncat5 = CLLCK: paenultima (0.0)
|   suffix_phoncat5 = ACLKC: paenultima (0.0)
|   suffix_phoncat5 = KLCKC: paenultima (0.0)
|   suffix_phoncat5 = LCADC: paenultima (0.0)
|   suffix_phoncat5 = CKCKA: paenultima (0.0)
|   suffix_phoncat5 = LCKCL: paenultima (0.0)
|   suffix_phoncat5 = CAKCK: paenultima (0.0)
|   suffix_phoncat5 = KCKCL: paenultima (0.0)
|   suffix_phoncat5 = CCKCL: paenultima (0.0)
|   suffix_phoncat5 = LALKC: paenultima (0.0)
|   suffix_phoncat5 = ADCKC: paenultima (0.0)
|   suffix_phoncat5 = CACLC: paenultima (0.0)
|   suffix_phoncat5 = KCLCL: paenultima (0.0)
|   suffix_phoncat5 = CLLCL: paenultima (0.0)
|   suffix_phoncat5 = CCLCL: paenultima (0.0)
|   suffix_phoncat5 = LKCKC: prima (4.0/1.0)
|   suffix_phoncat5 = KCALC: paenultima (0.0)
|   suffix_phoncat5 = CDKCC: paenultima (0.0)
|   suffix_phoncat5 = CCKCA: paenultima (0.0)
|   suffix_phoncat5 = ACLCK: paenultima (0.0)
|   suffix_phoncat5 = CLKCC: paenultima (0.0)
|   suffix_phoncat5 = CKCCC: paenultima (0.0)
|   suffix_phoncat5 = KCLCC: paenultima (0.0)
|   suffix_phoncat5 = CLCCK: paenultima (0.0)
|   suffix_phoncat5 = KACLC: paenultima (0.0)
|   suffix_phoncat5 = LKCLC: paenultima (0.0)
|   suffix_phoncat5 = KCLKC: paenultima (0.0)
|   suffix_phoncat5 = CCCKA: paenultima (0.0)
|   suffix_phoncat5 = DCCDC: paenultima (0.0)
|   suffix_phoncat5 = CKCCD: paenultima (0.0)
|   suffix_phoncat5 = CLCCL: paenultima (0.0)
|   suffix_phoncat5 = KCKCN: paenultima (0.0)
|   suffix_phoncat5 = KCKCD: paenultima (0.0)
|   suffix_phoncat5 = LCKCA: paenultima (0.0)
suffix5 = ammer: prima (13.0/1.0)
suffix5 = aufen: prima (10.0/2.0)
suffix5 = ktion: ultima (25.0/1.0)
suffix5 = misch: paenultima (10.0)
suffix5 = ister: prima (14.0/1.0)
suffix5 = alist: ultima (9.0)
suffix5 = chine: prima (17.0)
suffix5 = tibel: paenultima (5.0)
suffix5 = hrung: prima (8.0/3.0)
suffix5 = essig: prima (27.0/4.0)
suffix5 = ingen: prima (20.0/7.0)
suffix5 = ntion: ultima (6.0)
suffix5 = eiten: prima (24.0/8.0)
suffix5 = ltung: prima (19.0/7.0)
suffix5 = essen: prima (21.0/6.0)
suffix5 = artig: prima (21.0/4.0)
suffix5 = welle: prima (5.0)
suffix5 = itten: prima (10.0/1.0)
suffix5 = nhaft: antepaenultima (10.0/2.0)
suffix5 = ellig: prima (8.0)
suffix5 = ochen: prima (5.0/1.0)
suffix5 = itaet: ultima (79.0/1.0)
suffix5 = stalt: prima (8.0/3.0)
suffix5 = iegen: antepaenultima (14.0/8.0)
suffix5 = weise: prima (49.0/5.0)
suffix5 = glich: prima (22.0/4.0)
suffix5 = chule: prima (9.0/1.0)
suffix5 = achen: antepaenultima (8.0/3.0)
suffix5 = ssung: antepaenultima (6.0/3.0)
suffix5 = rkeit: prima (20.0/9.0)
suffix5 = eilen: prima (7.0/4.0)
suffix5 = igung: antepaenultima (47.0/7.0)
suffix5 = rabel: paenultima (7.0)
suffix5 = reten: antepaenultima (6.0/3.0)
suffix5 = digen: antepaenultima (18.0/3.0)
suffix5 = ozess: prima (5.0/1.0)
suffix5 = enger: prima (18.0/1.0)
suffix5 = abend: prima (11.0)
suffix5 = ester: prima (6.0/1.0)
suffix5 = ption: ultima (14.0)
suffix5 = richt: prima (18.0/1.0)
suffix5 = tiert: prima (6.0/2.0)
suffix5 = raten: prima (13.0/2.0)
suffix5 = gisch: paenultima (17.0/1.0)
suffix5 = ahren: antepaenultima (15.0/9.0)
suffix5 = hnung: prima (6.0/2.0)
suffix5 = tisch: paenultima (123.0/11.0)
suffix5 = usion: ultima (7.0)
suffix5 = disch: prima (10.0/4.0)
suffix5 = ateur: ultima (7.0)
suffix5 = ation: ultima (24.0/3.0)
suffix5 = hilfe: prima (5.0/1.0)
suffix5 = rasse: prima (12.0/2.0)
suffix5 = ssion: ultima (18.0)
suffix5 = nchen: prima (6.0/1.0)
suffix5 = ucker: prima (7.0)
suffix5 = berei: ultima (5.0)
suffix5 = scher: prima (7.0)
suffix5 = ustig: prima (6.0)
suffix5 = asten: prima (11.0/5.0)
suffix5 = zeige: prima (5.0)
suffix5 = ndnis: prima (5.0)
suffix5 = blich: prima (9.0/3.0)
suffix5 = elung: antepaenultima (43.0/17.0)
suffix5 = lerei: prima (8.0/3.0)
suffix5 = ichen: prima (26.0/13.0)
suffix5 = ismus: paenultima (63.0)
suffix5 = ehrer: prima (13.0/3.0)
suffix5 = rbeit: prima (21.0/4.0)
suffix5 = logie: ultima (23.0)
suffix5 = reich: prima (16.0/8.0)
suffix5 = telle: prima (7.0/1.0)
suffix5 = berin: prima (6.0/1.0)
suffix5 = nnung: prima (7.0/1.0)
suffix5 = tativ: ultima (9.0)
suffix5 = hlich: prima (13.0/5.0)
suffix5 = eller: prima (8.0/2.0)
suffix5 = maess: prima (9.0/4.0)
suffix5 = chten: paenultima (7.0/4.0)
suffix5 = ermig: prima (38.0/2.0)
suffix5 = ander: paenultima (11.0/2.0)
suffix5 = ierig: prima (7.0)
suffix5 = tabel: paenultima (10.0/1.0)
suffix5 = nlage: prima (11.0)
suffix5 = onist: ultima (5.0)
suffix5 = uchen: prima (11.0/6.0)
suffix5 = aehig: prima (16.0/7.0)
suffix5 = tunde: prima (10.0/3.0)
suffix5 = aeger: prima (10.0/2.0)
suffix5 = ckung: prima (5.0/1.0)
suffix5 = mkeit: prima (15.0/7.0)
suffix5 = eiter: prima (18.0)
suffix5 = assen: prima (25.0/11.0)
suffix5 = ellen: prima (13.0/6.0)
suffix5 = ender: prima (9.0/4.0)
suffix5 = ennen: prima (10.0/4.0)
suffix5 = lagen: prima (5.0/2.0)
suffix5 = legen: prima (16.0/6.0)
suffix5 = niker: antepaenultima (5.0)
suffix5 = tehen: prima (13.0/6.0)
suffix5 = rkung: prima (5.0)
suffix5 = edigt: prima (6.0)
suffix5 = aphie: ultima (16.0/1.0)
suffix5 = appen: prima (5.0/1.0)
suffix5 = htung: antepaenultima (9.0/5.0)
suffix5 = tiker: antepaenultima (14.0)
suffix5 = wagen: prima (14.0/2.0)
suffix5 = endig: prima (14.0)
suffix5 = eisen: prima (11.0/6.0)
suffix5 = haben: prima (7.0/2.0)
suffix5 = rkehr: prima (6.0/2.0)
suffix5 = rativ: ultima (13.0/2.0)
suffix5 = nfall: prima (5.0/1.0)
suffix5 = iefer: prima (5.0)
suffix5 = kunde: prima (7.0/2.0)
suffix5 = llung: prima (17.0/6.0)
suffix5 = allen: prima (14.0/7.0)
suffix5 = hrend: prima (5.0)
suffix5 = eifen: antepaenultima (8.0/4.0)
suffix5 = rator: paenultima (9.0)
suffix5 = eiben: prima (15.0/8.0)
suffix5 = ehler: prima (7.0/1.0)
suffix5 = antel: prima (5.0)
suffix5 = sehen: prima (10.0/5.0)
suffix5 = latte: prima (5.0)
suffix5 = decke: prima (5.0)
suffix5 = itung: prima (13.0/4.0)
suffix5 = slich: paenultima (10.0/2.0)
suffix5 = linie: prima (13.0)
suffix5 = manie: ultima (7.0)
suffix5 = gramm: ultima (7.0/3.0)
suffix5 = rsion: ultima (7.0)
suffix5 = etzen: prima (11.0/7.0)
suffix5 = idung: prima (9.0/1.0)
suffix5 = alber: prima (5.0)
suffix5 = andel: prima (7.0/3.0)
suffix5 = sisch: paenultima (11.0/3.0)
suffix5 = eisch: paenultima (7.0/3.0)
suffix5 = erdig: prima (9.0/1.0)
suffix5 = wicht: prima (10.0/2.0)
suffix5 = pisch: paenultima (8.0)
suffix5 = issen: prima (11.0/4.0)
suffix5 = rchen: prima (6.0)
suffix5 = ereit: prima (5.0/2.0)
suffix5 = inder: prima (5.0/1.0)
suffix5 = acher: prima (5.0/2.0)
suffix5 = ebung: prima (5.0/1.0)
suffix5 = geben: prima (8.0/2.0)
suffix5 = ecken: prima (10.0/5.0)
suffix5 = gslos: antepaenultima (7.0/3.0)
suffix5 = tator: paenultima (5.0)
suffix5 = immer: prima (10.0/1.0)
suffix5 = utung: prima (5.0/1.0)
suffix5 = idrig: antepaenultima (5.0/2.0)
suffix5 = parat: prima (6.0)
suffix5 = griff: prima (6.0/1.0)
suffix5 = ruder: prima (9.0/1.0)
suffix5 = ieben: prima (7.0/2.0)
suffix5 = erbar: paenultima (14.0/4.0)
suffix5 = etung: prima (5.0/2.0)
suffix5 = rheit: prima (7.0)
suffix5 = esser: prima (9.0/1.0)
suffix5 = onaer: ultima (5.0)
suffix5 = apier: prima (10.0/2.0)
suffix5 = anden: prima (7.0/1.0)
suffix5 = eudig: prima (5.0/2.0)
suffix5 = chtet: prima (7.0/2.0)
suffix5 = leger: prima (6.0/1.0)
suffix5 = ehung: prima (10.0/4.0)
suffix5 = ichte: prima (5.0)
suffix5 = latur: ultima (5.0)
suffix5 = dlung: prima (5.0/1.0)
suffix5 = ieden: prima (5.0/1.0)
suffix5 = bruch: prima (5.0/2.0)
suffix5 = asche: prima (6.0)
suffix5 = lisch: paenultima (17.0/5.0)
suffix5 = musik: prima (6.0/1.0)
suffix5 = recht: prima (9.0/4.0)
suffix5 = icher: prima (8.0/2.0)
suffix5 = ehmen: prima (9.0/2.0)
suffix5 = kheit: prima (5.0)
suffix5 = lehre: prima (8.0/2.0)
suffix5 = hlung: prima (7.0/3.0)
suffix5 = eraet: prima (6.0/1.0)
suffix5 = kasse: prima (5.0/1.0)
suffix5 = anzug: prima (6.0/1.0)
suffix5 = ehren: prima (10.0/4.0)
suffix5 = ratie: ultima (5.0)
suffix5 = altig: prima (11.0)
suffix5 = bande: prima (6.0/1.0)
suffix5 = stand: prima (10.0/2.0)
suffix5 = edung: paenultima (5.0/2.0)
suffix5 = ieber: prima (5.0)
suffix5 = trieb: prima (6.0/3.0)
suffix5 = ldung: prima (6.0/2.0)
suffix5 = ertig: prima (9.0/1.0)
suffix5 = karte: prima (11.0/2.0)
suffix5 = itaer: ultima (5.0)
suffix5 = istik: paenultima (5.0)
suffix5 = ehend: prima (10.0/1.0)
suffix5 = stung: prima (7.0/2.0)
suffix5 = chter: prima (6.0)
suffix5 = erfen: antepaenultima (7.0/4.0)
suffix5 = uehne: prima (5.0/2.0)
suffix5 = mlich: prima (5.0/1.0)
suffix5 = nadel: prima (6.0/2.0)
suffix5 = klage: prima (5.0/1.0)
suffix5 = feier: prima (5.0)
suffix5 = iegel: antepaenultima (6.0/3.0)
suffix5 = uetze: prima (6.0/1.0)
suffix5 = druck: paenultima (7.0/4.0)
suffix5 = arben: prima (9.0/3.0)
suffix5 = ruppe: prima (8.0)
suffix5 = zogen: prima (5.0)
suffix5 = tzbar: paenultima (5.0)
suffix5 = ebend: prima (8.0/2.0)
suffix5 = egung: prima (8.0/3.0)
suffix5 = eigen: prima (6.0/3.0)
suffix5 = teuer: prima (9.0/1.0)
suffix5 = chsen: prima (7.0/3.0)
suffix5 = gerin: prima (5.0)
suffix5 = ossen: prima (9.0/1.0)
suffix5 = echer: prima (8.0/1.0)
suffix5 = ition: ultima (7.0)
suffix5 = terei: ultima (5.0/1.0)
suffix5 = folge: prima (5.0)
suffix5 = oegen: prima (5.0)
suffix5 = lativ: ultima (6.0/1.0)
suffix5 = boren: prima (5.0)
suffix5 = egend: prima (5.0/1.0)
suffix5 = arbig: prima (7.0/1.0)
suffix5 = leben: prima (7.0/4.0)
suffix5 = ahlen: prima (5.0/2.0)
suffix5 = pitze: prima (5.0)
suffix5 = rache: prima (11.0/2.0)
suffix5 = kraft: prima (5.0/2.0)
suffix5 = apfel: prima (5.0/1.0)
suffix5 = bogen: prima (5.0/1.0)
suffix5 = tiner: paenultima (5.0)
suffix5 = ebiet: prima (6.0/1.0)
suffix5 = gzeug: prima (5.0/2.0)
suffix5 = halle: prima (5.0)
suffix5 = seite: prima (8.0)
suffix5 = blume: prima (6.0)
suffix5 = etrie: ultima (5.0)
suffix5 = farbe: prima (9.0/4.0)
suffix5 = esuch: prima (5.0/1.0)
suffix5 = lampe: antepaenultima (6.0/3.0)
suffix5 = wesen: prima (6.0)
suffix5 = ement: ultima (8.0)
suffix5 = heibe: prima (5.0)
suffix5 = eufer: prima (6.0)
suffix5 = terie: ultima (5.0/1.0)
suffix5 = zioes: ultima (5.0)
suffix5 = itter: prima (5.0/1.0)
suffix5 = tioes: ultima (5.0)

Number of Leaves  : 	600

Size of the tree : 	604
=== Classifier model ===

Scheme:   JRip
Relation: 4syl-all_training-weka.filters.unsupervised.attribute.Remove-R88-weka.filters.unsupervised.attribute.RemoveByName-E^(Word)$-weka.filters.unsupervised.attribute.MergeInfrequentNominalValues-N5-Rfirst-last-weka.filters.unsupervised.attribute.RenameAttribute-find(_merged_infrequent_values)-remove-all-Rfirst-last-weka.filters.unsupervised.attribute.Remove-V-R2-13,88-weka.filters.unsupervised.attribute.RemoveByName-E^(suff_class|signi_suffix|suffix_phoncat.|suffix.)$-V

JRIP rules:
===========

(suffix_phoncat2 = LC) and (suffix_phoncat3 = LLC) => stress_class=ultima (195.0/10.0)
(suffix_phoncat2 = LC) and (suffix_phoncat4 = LCLC) => stress_class=ultima (228.0/60.0)
(suffix2 = ie) and (suffix_phoncat1 = L) => stress_class=ultima (153.0/14.0)
(suffix_phoncat4 = KCLC) and (suffix1 = v) => stress_class=ultima (38.0/5.0)
(suff_class = acc) => stress_class=ultima (41.0/3.0)
(suffix_phoncat2 = LC) and (suffix2 = ur) => stress_class=ultima (38.0/10.0)
(suffix2 = nt) => stress_class=ultima (48.0/18.0)
(suffix_phoncat4 = KCKC) and (suffix2 = ng) => stress_class=antepaenultima (268.0/128.0)
(suffix_phoncat4 = KCKC) and (suffix4 = igen) => stress_class=antepaenultima (68.0/10.0)
(suffix4 = pich_or_laxe_or_zoid_or_rnen_or_vala_or_ysik_or_rbse_or_kale_or_rren_or_nett_or_tuer_or_uium_or_plar_or_iber_or_thek_or_kind_or_land_or_eser_or_aune_or_ltur_or_weis_or_ruhe_or_rter_or_oner_or_rtet_or_rsus_or_mane_or_ohne_or_aria_or_psis_or_ubar_or_tert_or_aede_or_ogel_or_ngig_or_taat_or_lzen_or_elei_or_robe_or_rite_or_lick_or_heim_or_line_or_rper_or_neur_or_rbot_or_rson_or_seur_or_ueck_or_chie_or_ymus_or_ssur_or_ding_or_nkel_or_rtag_or_toid_or_tral_or_ganz_or_fnet_or_ogik_or_zent_or_luss_or_aese_or_atze_or_hoss_or_rior_or_sive_or_enen_or_nese_or_llin_or_empo_or_oben_or_tzte_or_dler_or_psen_or_dezu_or_ndre_or_onar_or_baum_or_aler_or_sbar_or_onig_or_alee_or_chig_or_rama_or_elie_or_uese_or_nent_or_rube_or_olle_or_vice_or_rder_or_asis_or_ofil_or_isig_or_tine_or_itte_or_iole_or_ahre_or_mbte_or_hode_or_gler_or_pist_or_hern_or_tant_or_lore_or_quat_or_aldo_or_orie_or_iste_or_film_or_ever_or_samt_or_sitz_or_lpen_or_fbar_or_ogan_or_thie_or_pfer_or_kert_or_setz_or_usch_or_tufe_or_ellt_or_rafe_or_ocke_or_orat_or_mbar_or_inne_or_olie_or_mnen_or_lese_or_bude_or_brik_or_sart_or_atig_or_nika_or_eere_or_ison_or_neln_or_aage_or_lang_or_uche_or_irma_or_auze_or_emie_or_rgen_or_ball_or_rhut_or_walt_or_kmal_or_pran_or_sgut_or_gert_or_sino_or_zins_or_ilch_or_inal_or_alen_or_ioso_or_wort_or_nito_or_erke_or_idet_or_dere_or_gnis_or_ihen_or_zler_or_nell_or_ucht_or_rzig_or_path_or_dnen_or_dert_or_ziat_or_nier_or_epos_or_wung_or_lken_or_amie_or_enau_or_mime_or_anal_or_ktiv_or_mpel_or_tier_or_iosk_or_nner_or_amte_or_ntin_or_webe_or_tist_or_ause_or_bbar_or_reik_or_kose_or_wirr_or_vium_or_blau_or_wart_or_oent_or_keln_or_vore_or_tall_or_umen_or_tsam_or_tsch_or_ltar_or_rial_or_zahl_or_rein_or_enie_or_eruf_or_utik_or_chke_or_uert_or_ewen_or_here_or_lson_or_erse_or_leum_or_telt_or_umpe_or_tenz_or_elen_or_wehr_or_fest_or_itum_or_urin_or_llar_or_lend_or_ligt_or_euge_or_nial_or_ilig_or_fern_or_rmor_or_afen_or_sono_or_rige_or_dnet_or_rgel_or_darm_or_erze_or_riat_or_irge_or_bahn_or_denz_or_euse_or_ogut_or_ktor_or_larm_or_umme_or_gion_or_abil_or_xion_or_aeft_or_rzel_or_tive_or_andt_or_inik_or_enne_or_kelt_or_hein_or_lege_or_onal_or_eife_or_ring_or_uede_or_ksam_or_ivum_or_hale_or_irat_or_hmer_or_lkur_or_aeen_or_nake_or_ikel_or_nnig_or_etzt_or_itig_or_nker_or_inge_or_nabe_or_kete_or_nant_or_odex_or_amen_or_rese_or_oxin_or_ekel_or_dose_or_gene_or_rdie_or_oide_or_oxie_or_unge_or_osia_or_utig_or_chon_or_rede_or_gent_or_ndte_or_ernd_or_iete_or_mbur_or_rima_or_alie_or_anda_or_nart_or_rlag_or_urie_or_frig_or_aren_or_fang_or_otik_or_mten_or_tnis_or_noel_or_tene_or_lben_or_aech_or_grad_or_tich_or_noes_or_nrot_or_uebe_or_chor_or_okal_or_zium_or_erme_or_lied_or_luth_or_rale_or_mord_or_nage_or_tude_or_arkt_or_last_or_oman_or_kade_or_bzug_or_osse_or_ikat_or_edie_or_pium_or_tzel_or_tste_or_oden_or_exie_or_uhig_or_utiv_or_iast_or_ifer_or_atik_or_laut_or_olat_or_kino_or_hema_or_rsum_or_olon_or_mmel_or_elos_or_ugel_or_uest_or_imer_or_mile_or_dste_or_peln_or_halt_or_boid_or_laer_or_arke_or_agte_or_eist_or_ilie_or_eune_or_ianz_or_alin_or_ofen_or_haus_or_hnik_or_hoee_or_vion_or_uten_or_sium_or_lima_or_uene_or_rger_or_eits_or_rina_or_uern_or_aufe_or_ieur_or_alls_or_niak_or_eihe_or_tase_or_uere_or_ysis_or_etal_or_ntun_or_nate_or_latt_or_nrat_or_nzip_or_asie_or_rtie_or_ient_or_usst_or_rado_or_rdet_or_lide_or_rier_or_rran_or_tein_or_erar_or_aeck_or_bett_or_name_or_egig_or_iden_or_funk_or_uehl_or_even_or_dukt_or_sage_or_illo_or_nend_or_esie_or_etik_or_oche_or_ufig_or_iefe_or_sula_or_iene_or_unkt_or_enst_or_tadt_or_nter_or_okus_or_nzer_or_ader_or_enig_or_sern_or_annt_or_iske_or_itor_or_legt_or_lade_or_uben_or_darf_or_rnis_or_uoes_or_eral_or_ange_or_oria_or_olos_or_acke_or_auge_or_erre_or_aser_or_arde_or_lyse_or_eche_or_echs_or_gant_or_dent_or_adet_or_erad_or_fter_or_nion_or_ffet_or_rche_or_mnis_or_hlte_or_narm_or_ehmt_or_urve_or_eile_or_tlas_or_raum_or_appe_or_fend_or_likt_or_rine_or_omat_or_asma_or_eske_or_hlag_or_erik_or_inum_or_ival_or_ntur_or_tell_or_elde_or_nium_or_alze_or_dakt_or_site_or_anke_or_lase_or_stag_or_inze_or_etet_or_tner_or_feln_or_nern_or_itia_or_dner_or_stil_or_chse_or_erbt_or_kali_or_ehnt_or_bern_or_rgie_or_itus_or_arin_or_kauf_or_sper_or_lver_or_aege_or_saal_or_ritt_or_izin_or_rani_or_atus_or_tose_or_ienz_or_aeer_or_lern_or_gmin_or_ntum_or_hnet_or_geln_or_rmel_or_gnal_or_sler_or_itel_or_ital_or_lika_or_eund_or_gnen_or_lert_or_hrte_or_ippe_or_stan_or_bund_or_osen_or_hyse_or_zaun_or_hage_or_mide_or_kend_or_tise_or_aken_or_selt_or_hora_or_heme_or_sasa_or_nhof_or_ggio_or_init_or_amin_or_sinn_or_pakt_or_arfe_or_chiv_or_poid_or_rene_or_hsig_or_eure_or_lehe_or_ager_or_hrei_or_bige_or_rmie_or_uwau_or_gmat_or_rise_or_ginn_or_bine_or_unen_or_ynie_or_rere_or_pane_or_roni_or_ebig_or_eien_or_emal_or_lone_or_uehr_or_iaer_or_dron_or_deln_or_urig_or_hutz_or_kate_or_gial_or_skus_or_ntar_or_nopf_or_ebot_or_kett_or_geld_or_rfig_or_omig_or_aske_or_imax_or_soll_or_roid_or_eeis_or_saft_or_edig_or_zier_or_gnom_or_emse_or_olik_or_uenz_or_odie_or_efig_or_boot_or_iola_or_hase_or_phal_or_gelb_or_rtum_or_eule_or_aere_or_goge_or_onik_or_ular_or_lele_or_azie_or_hlig_or_nken_or_osis_or_note_or_aine_or_anin_or_zend_or_lohn_or_skur_or_urer_or_wiss_or_ohle_or_dore_or_oehe_or_affe_or_nuum_or_oten_or_nsel_or_reis_or_hese_or_oete_or_ingt_or_bild_or_smos_or_iere_or_ugal_or_euen_or_piel_or_itis_or_skel_or_ntag_or_idal_or_erum_or_oter_or_asst_or_dard_or_rent_or_lant_or_olis_or_srat_or_osol_or_tuch_or_zene_or_ummi_or_rief_or_sarm_or_sang_or_szug_or_uung_or_inat_or_kant_or_unst_or_uine_or_izer_or_inde_or_eele_or_ihte_or_osiv_or_lion_or_rall_or_gine_or_uend_or_tzer_or_aber_or_auch_or_dell_or_paar_or_lauf_or_asen_or_lave_or_onit_or_oral_or_stod_or_ymne_or_toff_or_orei_or_ypie_or_burt_or_rmee_or_rose_or_oert_or_ntik_or_chat_or_sane_or_scha_or_koer_or_inea_or_lhin_or_aupe_or_ilde_or_aran_or_rank_or_aika_or_tual_or_iler_or_rohr_or_nige_or_eaus_or_hrig_or_aete_or_stet_or_albe_or_inig_or_anti_or_acht_or_hild_or_zept_or_inse_or_itim_or_ttig_or_tuem_or_olen_or_efel_or_illa_or_otin_or_trik_or_iend_or_ikum_or_etto_or_cium_or_dame_or_rata_or_pfig_or_dhof_or_vant_or_nova_or_aise_or_ndum_or_latz_or_pern_or_rmin_or_edit_or_lope_or_trum_or_renz_or_hist_or_rken_or_remd_or_orig_or_lipp_or_dist_or_orte_or_tube_or_tsel_or_ltra_or_nase_or_ntie_or_tzig_or_rzug_or_pelt_or_iori_or_rkel_or_hens_or_agin_or_mend_or_henk_or_dite_or_fahr_or_nste_or_otor_or_gelt_or_apie_or_dine_or_deso_or_tnam_or_batt_or_onds_or_herd_or_raph_or_tole_or_rbau_or_wall_or_tote_or_alke_or_rzen_or_gner_or_loes_or_rift_or_agel_or_ldat_or_ktie_or_hmus_or_lane_or_mese_or_ngel_or_ytik_or_onto_or_oxon_or_reif_or_hsel_or_sode_or_inen_or_ngst_or_nore_or_folg_or_eppe_or_sard_or_tike_or_uite_or_kern_or_aehe_or_alme_or_lien_or_reuz_or_lher_or_iake_or_idee_or_epfe_or_alge_or_uero_or_ltet_or_jekt_or_fote_or_ldet_or_ickt_or_edel_or_eker_or_afel_or_ombe_or_rone_or_ranz_or_ador_or_blem_or_tent_or_flig_or_eipe_or_orit_or_nnte_or_dial_or_afie_or_ario_or_hang_or_sort_or_xual_or_ugen_or_teak_or_imme_or_rsch_or_mden_or_leon_or_ahrt_or_ztee_or_gium_or_plan_or_tags_or_welt_or_soph_or_deon_or_ften_or_holz_or_amid_or_gfer_or_oxid_or_urge_or_rase_or_uetz_or_itiv_or_kure_or_zola_or_atum_or_eweg_or_glas_or_innt_or_bsel_or_snah_or_loid_or_bnis_or_nenz_or_brig_or_alik_or_stel_or_giro_or_tige_or_utte_or_runk_or_belt_or_abet_or_alte_or_hama_or_ztag_or_rsam_or_wurf_or_hone_or_ntil_or_inst_or_toss_or_eunt_or_rrat_or_skop_or_plin_or_axie_or_mera_or_seln_or_orps_or_taxe_or_urat_or_uehe_or_mato_or_obil_or_ktus_or_rbel_or_ikal_or_enal_or_ypus_or_uose_or_lrot_or_arrh_or_nale_or_igur_or_tlos_or_sene_or_kult_or_nlos_or_anto_or_erfe_or_rlos_or_iant_or_nsch_or_cato_or_chad_or_urst_or_ptiv_or_ehrt_or_sell_or_werb_or_iege_or_wuer_or_exus_or_gese_or_atio_or_agio_or_rebs_or_itas_or_bote_or_alig_or_apen_or_rste_or_ophe_or_lfen_or_nkig_or_treu_or_sine_or_yper_or_lier_or_ider_or_tont_or_port_or_loel_or_lanz_or_obie_or_rute_or_nixe_or_agge_or_ivie_or_ener_or_beri_or_usen_or_lenk_or_lith_or_agus_or_kopf_or_bial_or_chau_or_wine_or_tium_or_lbum_or_erne_or_stab_or_urus_or_fekt_or_zone_or_ubig_or_rtei_or_tete_or_oewe_or_ivus_or_felt_or_ikon_or_erat_or_loss_or_dier_or_odik_or_eiss_or_xter_or_salz_or_dich_or_pper_or_ipal_or_inta_or_unft_or_oget_or_gone_or_rgan_or_duum_or_umig_or_edet_or_heke_or_lett_or_ttet_or_eria_or_udio_or_taen_or_elte_or_orik_or_fuge_or_kurs_or_hlaf_or_odox_or_woch_or_eres_or_fett_or_kope_or_llte_or_rfer_or_axis_or_rfel_or_okat_or_rell_or_zise_or_htel_or_vane_or_pode_or_hied_or_sist_or_rmat_or_pere_or_zenz_or_liar_or_zlos_or_lent_or_lenz_or_ulum_or_kord_or_bule_or_ffee_or_ance_or_onne_or_rlei_or_yone_or_ttes_or_lder_or_efen_or_ehlt_or_lzit_or_avit_or_meda_or_izei_or_nehm_or_zirk_or_fner_or_stiz_or_kuli_or_gabt_or_kler_or_zert_or_igma_or_netz_or_teln_or_ndis_or_noid_or_hirr_or_wahn_or_dete_or_simo_or_ings_or_earm_or_guss_or_mern_or_beet_or_hmal_or_vist_or_lare_or_vanz_or_muse_or_rber_or_pora) and (suffix2 = um) => stress_class=antepaenultima (48.0/19.0)
(suffix5 = nheit) => stress_class=antepaenultima (50.0/8.0)
(suffix4 = iker) => stress_class=antepaenultima (24.0/0.0)
(suffix_phoncat4 = LCKC) and (suffix4 = eren) => stress_class=paenultima (456.0/48.0)
(suffix4 = isch) and (suffix_phoncat4 = LCKC) => stress_class=paenultima (204.0/24.0)
(suffix_phoncat4 = LCKC) and (suffix5 = erung) => stress_class=paenultima (68.0/10.0)
(suffix_phoncat5 = LCLCK) => stress_class=paenultima (86.0/10.0)
(suffix3 = mus) => stress_class=paenultima (69.0/1.0)
(suffix5 = tisch) => stress_class=paenultima (71.0/5.0)
(suffix5 = ppich_or_zerin_or_ylaxe_or_lente_or_eform_or_ratte_or_ezoid_or_ieler_or_ernen_or_oehen_or_evala_or_hysik_or_litik_or_erbse_or_ikale_or_arren_or_inett_or_ntuer_or_nform_or_inger_or_fisch_or_quium_or_nsion_or_lfall_or_mplar_or_eiber_or_othek_or_rkind_or_rland_or_leser_or_leber_or_daune_or_matte_or_utter_or_ultur_or_eweis_or_nruhe_or_ntrag_or_arter_or_honer_or_monat_or_artet_or_nerin_or_ursus_or_omane_or_bohne_or_varia_or_ttung_or_epsis_or_aubar_or_stert_or_paede_or_vogel_or_vativ_or_engig_or_staat_or_alzen_or_aeude_or_pelei_or_sagen_or_itbar_or_probe_or_zlich_or_reise_or_tufen_or_trite_or_blick_or_sheim_or_eline_or_uelle_or_lotte_or_erper_or_ineur_or_ament_or_erbot_or_erson_or_iseur_or_tueck_or_rchie_or_ophie_or_nymus_or_nzung_or_essur_or_lding_or_weide_or_enkel_or_ertag_or_eckel_or_stoid_or_etral_or_aganz_or_ieten_or_ffnet_or_uegen_or_ngabe_or_chner_or_zchen_or_sfrei_or_tasse_or_gogik_or_tesse_or_fegen_or_uzent_or_istig_or_terin_or_aiker_or_hluss_or_rampe_or_bauen_or_kaese_or_chose_or_ahrer_or_katze_or_choss_or_lette_or_erior_or_fchen_or_usive_or_feuer_or_dauer_or_oenen_or_nland_or_rsatz_or_hslos_or_astik_or_anese_or_dnung_or_oehle_or_ellin_or_ihbar_or_sform_or_tempo_or_migen_or_loben_or_etzte_or_uetig_or_ndler_or_lhaft_or_ipsen_or_adezu_or_ondre_or_ntern_or_ionar_or_rbaum_or_maler_or_ssbar_or_honig_or_zalee_or_erden_or_echig_or_esche_or_orama_or_melie_or_ruese_or_inent_or_sicht_or_grube_or_rolle_or_renze_or_rvice_or_erder_or_udend_or_basis_or_eltig_or_rofil_or_neide_or_eisig_or_aisch_or_ngang_or_tsatz_or_nebel_or_ntine_or_uzung_or_sitte_or_ocken_or_hauen_or_hiole_or_wahre_or_ombte_or_thode_or_egler_or_ypist_or_chern_or_luete_or_ntant_or_olore_or_derig_or_equat_or_saldo_or_gorie_or_ehlen_or_lzeit_or_kiste_or_oesse_or_utage_or_sfilm_or_rtrag_or_oever_or_tsamt_or_esitz_or_elpen_or_efbar_or_logan_or_athie_or_fanne_or_kisch_or_etion_or_serie_or_seide_or_arung_or_opfer_or_lkert_or_esetz_or_rtung_or_ulich_or_ntaer_or_eusch_or_stufe_or_yrium_or_uerin_or_uellt_or_trafe_or_hocke_or_dsamt_or_fsatz_or_torat_or_hmbar_or_ninne_or_bolie_or_mmnen_or_alese_or_ziell_or_glung_or_lbude_or_abrik_or_ueren_or_nsart_or_enden_or_nante_or_natig_or_onika_or_beere_or_aison_or_nneln_or_waage_or_elang_or_tlose_or_euche_or_firma_or_aefer_or_erben_or_nauze_or_hemie_or_orgen_or_rball_or_stern_or_feder_or_erhut_or_ewalt_or_nkmal_or_heben_or_opran_or_tsgut_or_giert_or_iheit_or_agert_or_asino_or_lzins_or_milch_or_arten_or_kotte_or_efung_or_ueber_or_nsein_or_zinal_or_malen_or_fioso_or_swort_or_arade_or_gnito_or_aerke_or_gende_or_eidet_or_ndere_or_ugnis_or_eihen_or_nzler_or_ferin_or_inell_or_sucht_or_erzig_or_opath_or_guete_or_ution_or_rdnen_or_nriff_or_biell_or_ndert_or_egbar_or_rioso_or_iziat_or_elbar_or_esatz_or_enier_or_ldend_or_nepos_or_rufen_or_diger_or_hwung_or_nator_or_alken_or_gamie_or_genau_or_omime_or_kanal_or_rkmal_or_uktiv_or_essel_or_twerk_or_empel_or_ltend_or_ehbar_or_rtier_or_kiosk_or_enner_or_eamte_or_entin_or_ewebe_or_locke_or_herin_or_mmbar_or_hnbar_or_ttist_or_utbar_or_pause_or_ebbar_or_zende_or_treik_or_sache_or_rphie_or_ikose_or_ufung_or_ewirr_or_maten_or_rdung_or_relle_or_uvium_or_nende_or_oblau_or_uette_or_riell_or_nwart_or_nsten_or_roent_or_nkeln_or_haden_or_piert_or_igend_or_tinie_or_ivore_or_haube_or_etall_or_riebe_or_aenge_or_eumen_or_ltsam_or_utsch_or_ndbar_or_altar_or_erial_or_rzahl_or_engen_or_erein_or_aeder_or_orben_or_higen_or_renie_or_ohrer_or_beruf_or_eufen_or_eutik_or_schke_or_euert_or_ngbar_or_iewen_or_itzen_or_chere_or_elson_or_verse_or_oleum_or_stelt_or_pumpe_or_stenz_or_uelen_or_erist_or_bwehr_or_rfest_or_unden_or_situm_or_turin_or_ellar_or_uster_or_rtion_or_elend_or_matur_or_lligt_or_islos_or_enbar_or_ratur_or_zeuge_or_datur_or_liebe_or_esbar_or_enial_or_eilig_or_sfern_or_armor_or_lafen_or_inist_or_isono_or_hrige_or_rdnet_or_rerei_or_orgel_or_isung_or_rdarm_or_uerze_or_ariat_or_dchen_or_birge_or_idium_or_udium_or_ebahn_or_uhler_or_ndenz_or_ceuse_or_sogut_or_rgern_or_ssend_or_agbar_or_aktor_or_alarm_or_isser_or_summe_or_igion_or_tabil_or_visch_or_ohend_or_exion_or_haeft_or_urzel_or_ktive_or_frage_or_kelig_or_wandt_or_rftig_or_linik_or_adium_or_henne_or_oeren_or_akelt_or_kerin_or_chein_or_uktur_or_elege_or_gerei_or_ional_or_feife_or_utzen_or_ering_or_wigen_or_sring_or_lucht_or_tuede_or_rksam_or_tivum_or_phale_or_eirat_or_selle_or_bsatz_or_ehmer_or_alkur_or_rente_or_saeen_or_monie_or_inake_or_asung_or_earzt_or_tikel_or_warte_or_ziert_or_innig_or_biner_or_setzt_or_eitig_or_anker_or_etigt_or_ilung_or_linge_or_trate_or_lfrei_or_telie_or_knabe_or_undig_or_akete_or_tnant_or_kodex_or_samen_or_erese_or_toxin_or_tekel_or_rdose_or_tsein_or_issig_or_rwert_or_etaet_or_hagen_or_atrie_or_slose_or_ogene_or_ardie_or_roide_or_doxie_or_opfen_or_junge_or_rosia_or_mutig_or_rarzt_or_amung_or_ichon_or_nrede_or_oment_or_ische_or_igent_or_andte_or_nesse_or_pernd_or_miete_or_kativ_or_ambur_or_beten_or_prima_or_ralie_or_stler_or_angen_or_ganda_or_gente_or_enart_or_erlag_or_tomie_or_liter_or_eutig_or_jurie_or_ifrig_or_rgang_or_rzung_or_atten_or_hebel_or_baren_or_nfang_or_rette_or_iotik_or_derer_or_rtage_or_amten_or_riert_or_seher_or_tlung_or_ntnis_or_acker_or_enoel_or_lware_or_ttene_or_alben_or_arium_or_raech_or_otine_or_sgrad_or_ttich_or_inoes_or_uerei_or_anrot_or_ruebe_or_lchor_or_vokal_or_rzium_or_undet_or_agung_or_aerme_or_glied_or_uemen_or_oluth_or_niert_or_erale_or_lmord_or_anage_or_laune_or_htigt_or_fache_or_itude_or_markt_or_klast_or_ntial_or_roman_or_ikade_or_abzug_or_rosse_or_rikat_or_reite_or_oedie_or_ropie_or_opium_or_notte_or_itzel_or_rtste_or_mlung_or_ndrig_or_regen_or_boden_or_lexie_or_ruhig_or_peter_or_nutiv_or_siast_or_eifer_or_emung_or_nktur_or_batik_or_llaut_or_tolat_or_okino_or_kante_or_mauer_or_thema_or_hecke_or_ersum_or_kolon_or_immel_or_horen_or_helle_or_aeher_or_ielos_or_kugel_or_licht_or_ritik_or_oerde_or_tiell_or_mpfen_or_euest_or_delig_or_eimer_or_imile_or_ndste_or_mpeln_or_matik_or_ental_or_ehalt_or_wache_or_eboid_or_ulaer_or_marke_or_lagte_or_rband_or_geist_or_hilie_or_sufer_or_aeune_or_rianz_or_iffen_or_nheim_or_merie_or_uiert_or_nalin_or_rlage_or_aeter_or_lofen_or_thaus_or_ngend_or_nbahn_or_chnik_or_giker_or_ttbar_or_rhoee_or_uvion_or_luten_or_esium_or_klima_or_duene_or_nbaum_or_erger_or_seits_or_erina_or_euern_or_taufe_or_rieur_or_falls_or_oniak_or_eatur_or_reihe_or_stase_or_kuere_or_lysis_or_holie_or_etrag_or_petal_or_entun_or_chale_or_heuer_or_anate_or_blatt_or_sohne_or_enrat_or_inzip_or_srate_or_izung_or_tasie_or_meier_or_vater_or_zelle_or_nteur_or_artie_or_zient_or_lusst_or_erado_or_hrdet_or_rzeit_or_mtion_or_tonie_or_olide_or_ragen_or_eaner_or_olden_or_yrier_or_erran_or_stein_or_nerar_or_onier_or_orden_or_ilden_or_paeck_or_nbett_or_orale_or_ttern_or_ibung_or_ektiv_or_rname_or_aegig_or_eiden_or_ifunk_or_fuehl_or_teven_or_sabel_or_klung_or_ueler_or_ferer_or_lster_or_achte_or_lchen_or_odukt_or_nsage_or_rillo_or_offen_or_nnend_or_hesie_or_letik_or_woche_or_wusst_or_eufig_or_resse_or_olten_or_vator_or_tiefe_or_stich_or_rerde_or_nsula_or_miene_or_dwerk_or_punkt_or_wille_or_ename_or_ienst_or_eofen_or_ruest_or_stadt_or_unter_or_pokus_or_anzer_or_gader_or_htbar_or_aenig_or_manne_or_isern_or_nlese_or_rannt_or_riske_or_sfall_or_rrede_or_wegen_or_sitor_or_ginal_or_atung_or_elegt_or_illig_or_argel_or_ilich_or_olade_or_ternd_or_auben_or_edarf_or_ernis_or_tuoes_or_atist_or_teral_or_lange_or_wogen_or_toria_or_otion_or_orger_or_unnen_or_kolos_or_jacke_or_rauge_or_otter_or_truhe_or_zerei_or_perre_or_rioes_or_faser_or_barde_or_inkel_or_wanne_or_alyse_or_dalin_or_kette_or_aeche_or_aechs_or_leier_or_agant_or_ftrag_or_eater_or_ident_or_hadet_or_lanze_or_elage_or_merad_or_aetig_or_ifter_or_lerie_or_union_or_uffet_or_irche_or_atein_or_imnis_or_ehlte_or_enarm_or_aehmt_or_kurve_or_feile_or_nkelt_or_giene_or_hrbar_or_atlas_or_rraum_or_ickel_or_uehle_or_pappe_or_ufend_or_endel_or_hmung_or_elikt_or_arine_or_beral_or_tomat_or_hator_or_rster_or_lasma_or_beske_or_chlag_or_terik_or_ninum_or_tival_or_antur_or_asion_or_milie_or_ntell_or_aelde_or_lecht_or_onium_or_walze_or_strie_or_oteur_or_idakt_or_nomie_or_siert_or_nwalt_or_iatur_or_isite_or_prung_or_itage_or_danke_or_blase_or_ustag_or_minze_or_ogern_or_uetet_or_rtner_or_pfeln_or_ekeln_or_ftigt_or_hnern_or_titia_or_edner_or_nstil_or_echse_or_terde_or_tware_or_hzeit_or_logen_or_reden_or_ommel_or_abene_or_aerbt_or_nkali_or_aehnt_or_rzeug_or_oster_or_ebern_or_urgie_or_sator_or_oitus_or_zarin_or_melig_or_rkauf_or_regel_or_eraum_or_asper_or_ulver_or_saege_or_kaner_or_zsaal_or_ueter_or_tritt_or_dizin_or_agern_or_innen_or_arani_or_ratus_or_onade_or_ktose_or_dienz_or_chler_or_maeer_or_igern_or_dioes_or_llern_or_abung_or_itant_or_igmin_or_entum_or_chnet_or_sarzt_or_ssatz_or_egeln_or_ermel_or_erium_or_ignal_or_ssler_or_titel_or_pital_or_iater_or_ilika_or_reund_or_ignen_or_derei_or_elert_or_tellt_or_erobe_or_ehrte_or_tende_or_lippe_or_laden_or_istan_or_sbund_or_hosen_or_raeer_or_udern_or_uerde_or_physe_or_nzaun_or_orten_or_phage_or_amide_or_ckend_or_epfen_or_rtise_or_haken_or_gasse_or_uselt_or_muede_or_phora_or_theme_or_dsasa_or_hnhof_or_eggio_or_rfall_or_finit_or_erade_or_paeer_or_tamin_or_nsinn_or_ozial_or_sgabe_or_spakt_or_backe_or_mativ_or_nbuch_or_weihe_or_taube_or_harfe_or_raben_or_rchiv_or_opoid_or_orene_or_chsig_or_aeure_or_eecke_or_ilehe_or_lager_or_chrei_or_offel_or_erbig_or_lbige_or_rigen_or_ierer_or_ermie_or_teler_or_auwau_or_igmat_or_nital_or_ussen_or_krise_or_reben_or_eginn_or_erend_or_oenig_or_llaxe_or_nauge_or_abine_or_hitze_or_chnen_or_atene_or_ohnen_or_wolle_or_aunen_or_gynie_or_erere_or_ipane_or_aroni_or_iebig_or_tchen_or_deien_or_anist_or_hemal_or_alone_or_osion_or_buehr_or_diaer_or_ndron_or_edeln_or_ourig_or_idert_or_onell_or_chutz_or_emmen_or_liert_or_ikate_or_mator_or_trage_or_egial_or_ollen_or_annen_or_ttigt_or_fluss_or_iskus_or_aedie_or_mande_or_esten_or_entar_or_knopf_or_gebot_or_ikett_or_sband_or_llbar_or_feger_or_sgeld_or_itist_or_raube_or_erfig_or_romig_or_maske_or_limax_or_enzer_or_nsive_or_lator_or_esoll_or_puppe_or_eroid_or_leeis_or_ndend_or_nsaft_or_affen_or_rrung_or_oedig_or_ehose_or_flage_or_izier_or_ognom_or_remse_or_tgabe_or_holik_or_inaer_or_quenz_or_podie_or_aefig_or_nzial_or_eboot_or_szeit_or_geber_or_riola_or_oband_or_rhase_or_nname_or_renge_or_iisch_or_ephal_or_ngelb_or_ertum_or_nette_or_iemen_or_ndeln_or_aeule_or_haere_or_illen_or_agoge_or_bgabe_or_ronik_or_aette_or_kular_or_llele_or_kazie_or_ehlig_or_enken_or_dosis_or_etter_or_ngung_or_lnote_or_raine_or_bfall_or_manin_or_nzend_or_rhaft_or_bchen_or_enade_or_llohn_or_aehen_or_utend_or_recke_or_gskur_or_eurer_or_ewiss_or_sativ_or_kohle_or_weile_or_odore_or_hoehe_or_ieher_or_tsche_or_saffe_or_inuum_or_noten_or_shose_or_insel_or_aftig_or_kreis_or_ummer_or_mdung_or_adung_or_these_or_roete_or_xamen_or_sigen_or_dingt_or_lbild_or_nnbar_or_ecker_or_ebuch_or_osmos_or_oerer_or_rsche_or_niere_or_fugal_or_heuen_or_eruch_or_larzt_or_peise_or_spiel_or_titis_or_uskel_or_nntag_or_midal_or_herum_or_ioter_or_passt_or_horie_or_rstig_or_ndard_or_erent_or_ulant_or_polis_or_tsrat_or_rosol_or_derin_or_dtuch_or_heide_or_hoben_or_tille_or_stbar_or_egnen_or_anier_or_szene_or_gummi_or_brief_or_gsarm_or_esang_or_isten_or_rauer_or_tonig_or_ungen_or_ierte_or_orial_or_eiger_or_reude_or_rauen_or_rerin_or_lszug_or_aktur_or_nware_or_euung_or_delei_or_gonie_or_kanne_or_efern_or_minat_or_matie_or_borat_or_ikant_or_reien_or_kunst_or_stell_or_duine_or_eizer_or_nstig_or_binde_or_seele_or_eihte_or_gitis_or_losiv_or_llion_or_prall_or_rgine_or_klich_or_tuend_or_itzer_or_ucken_or_haber_or_rauch_or_odell_or_rpaar_or_demie_or_roren_or_nlauf_or_lasen_or_klave_or_faden_or_gonit_or_tante_or_poral_or_gstod_or_stuer_or_runde_or_nerei_or_hymne_or_htler_or_inner_or_stoff_or_berer_or_ubung_or_meise_or_torei_or_flich_or_lfilm_or_rware_or_typie_or_beule_or_auung_or_erine_or_oline_or_eburt_or_armee_or_rteil_or_urose_or_werer_or_kelle_or_likat_or_niole_or_rrtum_or_elter_or_agang_or_sslos_or_herie_or_toert_or_antik_or_rchat_or_dslos_or_nsatz_or_kabel_or_azial_or_isane_or_dscha_or_mpfer_or_ahler_or_ikoer_or_linea_or_serer_or_izium_or_llhin_or_sette_or_raupe_or_bilde_or_baran_or_kopie_or_hrank_or_laika_or_gerte_or_ntual_or_tuell_or_otenz_or_einde_or_eiler_or_oehre_or_nrohr_or_iator_or_enige_or_deaus_or_rfung_or_anger_or_ehrig_or_haete_or_iligt_or_rdern_or_astet_or_walbe_or_linig_or_echef_or_ranti_or_onnen_or_leder_or_dacht_or_child_or_ezept_or_linse_or_mappe_or_gerie_or_nboot_or_ttert_or_otage_or_gitim_or_ittig_or_tslos_or_stuem_or_lzene_or_under_or_holen_or_ietig_or_iefel_or_rilla_or_gnung_or_iotin_or_ntrik_or_menge_or_inken_or_gment_or_eiend_or_oikum_or_retto_or_nhalt_or_zbuch_or_icium_or_messe_or_ranze_or_rdame_or_irata_or_epfig_or_endet_or_edhof_or_lasse_or_ndium_or_masie_or_ylose_or_evant_or_aerig_or_nkung_or_nacht_or_rnova_or_naise_or_andum_or_platz_or_ehner_or_delle_or_nteil_or_ausch_or_arist_or_ppern_or_ermin_or_redit_or_ilope_or_ntrum_or_dende_or_rgabe_or_erenz_or_chist_or_erken_or_ionat_or_kerze_or_fremd_or_sende_or_torig_or_sweis_or_esend_or_netik_or_ilipp_or_rdist_or_forte_or_illin_or_oemen_or_zeher_or_leuse_or_stube_or_bisch_or_etsel_or_ndern_or_bauer_or_schef_or_antin_or_tikum_or_ision_or_ultra_or_enter_or_ucher_or_nnase_or_antie_or_etzig_or_inbar_or_ltigt_or_erzug_or_herei_or_mpelt_or_acken_or_nioes_or_riori_or_sibel_or_irkel_or_sruhe_or_udung_or_ofilm_or_ehens_or_hanie_or_ragin_or_lsion_or_llend_or_hmend_or_nster_or_chenk_or_ndite_or_inade_or_efahr_or_zienz_or_onste_or_motor_or_tgelt_or_rapie_or_dinge_or_lzahl_or_besen_or_rdine_or_mogen_or_nhaus_or_lgbar_or_adeso_or_atzer_or_ontal_or_wende_or_ebild_or_auern_or_rehen_or_udeln_or_etnam_or_abatt_or_fonds_or_eherd_or_graph_or_stole_or_erbau_or_olbar_or_marin_or_oebel_or_oerig_or_kwall_or_ptote_or_falke_or_erzen_or_ugner_or_rsage_or_nerie_or_kfrei_or_uloes_or_idbar_or_hrift_or_merig_or_htuer_or_nagel_or_oldat_or_aktie_or_kator_or_thmus_or_plane_or_amese_or_effel_or_zfall_or_oeser_or_angel_or_ohner_or_inarm_or_lytik_or_ueden_or_konto_or_sente_or_doxon_or_sreif_or_chsel_or_getik_or_isode_or_unken_or_rmann_or_einen_or_soral_or_angst_or_riole_or_genie_or_gnore_or_rfolg_or_ftler_or_isend_or_hafen_or_reppe_or_ssard_or_elade_or_ntike_or_nasie_or_duite_or_rrbar_or_nkern_or_eiert_or_frist_or_ronie_or_naehe_or_palme_or_rogen_or_ilien_or_kreuz_or_falle_or_llher_or_niake_or_hidee_or_saeer_or_nepfe_or_salge_or_nigen_or_buero_or_kerei_or_izial_or_altet_or_ojekt_or_pfote_or_ffung_or_neien_or_erter_or_assel_or_ildet_or_nativ_or_alide_or_uegel_or_tickt_or_elist_or_etzer_or_aedel_or_heker_or_uttel_or_tafel_or_stion_or_ontag_or_ubine_or_aeuen_or_bombe_or_ritum_or_arone_or_uranz_or_tmann_or_eador_or_riker_or_oblem_or_ugung_or_kutiv_or_egelt_or_stent_or_tange_or_eflig_or_ebene_or_atzen_or_lrate_or_togen_or_neipe_or_nente_or_eorit_or_innte_or_fikat_or_gwerk_or_idial_or_rafie_or_nario_or_nhang_or_otten_or_gsort_or_ewort_or_rkose_or_elden_or_exual_or_kfest_or_zugen_or_steak_or_webel_or_lpeln_or_timme_or_elzen_or_enzug_or_arsch_or_elich_or_emden_or_gonal_or_eleon_or_fahrt_or_nztee_or_immen_or_ugium_or_rplan_or_plage_or_ttags_or_nwelt_or_osoph_or_rdeon_or_asmus_or_mfang_or_aften_or_ektur_or_nholz_or_lesen_or_utral_or_yamid_or_rbild_or_ngfer_or_atine_or_splan_or_eugen_or_roxid_or_stigt_or_hlbar_or_lbuch_or_lurge_or_hrase_or_huetz_or_ormel_or_nitiv_or_ekure_or_edern_or_selig_or_nzola_or_datum_or_seweg_or_zglas_or_sinnt_or_ibsel_or_tsnah_or_oloid_or_ebnis_or_inenz_or_ibrig_or_ralik_or_nstel_or_ditor_or_ogiro_or_htige_or_butte_or_trunk_or_rsinn_or_obelt_or_rsuch_or_lwert_or_aktiv_or_habet_or_wader_or_ostik_or_sstil_or_etenz_or_palte_or_ppeln_or_ohama_or_nztag_or_orsam_or_nannt_or_twurf_or_thone_or_entil_or_pinst_or_icken_or_stoss_or_aeunt_or_ehaft_or_laffe_or_errat_or_oskop_or_nnsel_or_iplin_or_raxie_or_amera_or_etent_or_gativ_or_nseln_or_nicht_or_korps_or_nritt_or_ataxe_or_turat_or_ldbar_or_ruehe_or_imato_or_reile_or_mobil_or_kurat_or_aktus_or_irbel_or_dikal_or_rhose_or_menal_or_astig_or_typus_or_orfen_or_tenne_or_uativ_or_rbung_or_narde_or_ocker_or_tuose_or_elrot_or_trone_or_aeber_or_krank_or_tarrh_or_inale_or_figur_or_etlos_or_ngert_or_inate_or_teher_or_hsene_or_nkult_or_enlos_or_erite_or_ranto_or_aumen_or_pator_or_aerfe_or_trose_or_garde_or_entag_or_aster_or_chbar_or_lkern_or_ueten_or_hmann_or_rbuch_or_arlos_or_weite_or_fikal_or_enese_or_gesie_or_ziant_or_ensch_or_tande_or_hlend_or_icato_or_schad_or_wurst_or_otent_or_olung_or_eseln_or_eptiv_or_kehrt_or_racht_or_ssitz_or_rsell_or_rwerb_or_romat_or_liege_or_hwuer_or_lilie_or_lexus_or_egese_or_ndent_or_datio_or_rchef_or_dagio_or_krebs_or_vitas_or_sbote_or_malig_or_diant_or_sbild_or_kapen_or_erste_or_oidal_or_zigen_or_nftig_or_igene_or_ergen_or_rophe_or_ehnen_or_olfen_or_binat_or_ierde_or_enkig_or_laner_or_enrot_or_ntreu_or_arier_or_unist_or_ofrei_or_ldler_or_lsine_or_lglas_or_typer_or_dbahn_or_alier_or_ifend_or_ophal_or_eider_or_etont_or_zidal_or_piell_or_esung_or_sport_or_aloel_or_ilanz_or_hobie_or_lrute_or_onial_or_ettel_or_rnixe_or_litis_or_ldigt_or_rofen_or_bonat_or_lagge_or_effen_or_divie_or_iment_or_aemie_or_lader_or_flege_or_rgung_or_rener_or_itial_or_orter_or_iberi_or_irren_or_fonat_or_ausen_or_elenk_or_olith_or_narbe_or_ragus_or_rkopf_or_suche_or_nslos_or_motte_or_rbial_or_aikum_or_niaer_or_schau_or_rlegt_or_heber_or_awine_or_ntium_or_album_or_sgang_or_alung_or_osser_or_oedel_or_winde_or_stige_or_asium_or_lslos_or_idend_or_terne_or_lstab_or_agion_or_entik_or_aurus_or_ippen_or_ffekt_or_azone_or_eubig_or_srede_or_ftung_or_artei_or_stete_or_gdose_or_taner_or_olyse_or_nkend_or_loewe_or_uenze_or_tivus_or_ngern_or_efelt_or_dstel_or_xikon_or_serum_or_nabel_or_virat_or_terat_or_hloss_or_minal_or_waffe_or_malie_or_ratze_or_inrot_or_adier_or_inage_or_iebel_or_iodik_or_ahmen_or_weiss_or_exter_or_rrend_or_oheit_or_lsalz_or_stend_or_kdich_or_epper_or_zipal_or_nfrei_or_ifung_or_daner_or_tinta_or_kunft_or_kater_or_uefer_or_loget_or_libel_or_tanne_or_igone_or_preis_or_iesen_or_dabel_or_elben_or_organ_or_odial_or_iduum_or_aumig_or_uedet_or_honie_or_esion_or_amann_or_theke_or_elett_or_turie_or_velle_or_lerde_or_ittet_or_echte_or_zeria_or_tudio_or_itaen_or_einer_or_aelte_or_horik_or_smann_or_ltbar_or_ifuge_or_nkurs_or_oboot_or_chlaf_or_hodox_or_twoch_or_einig_or_kuppe_or_ponie_or_uecke_or_deres_or_evoll_or_buche_or_efett_or_ierin_or_unker_or_sheit_or_tband_or_okope_or_ellte_or_erfer_or_elern_or_taxis_or_erfel_or_rokat_or_nlang_or_lonie_or_urell_or_uware_or_melle_or_ezise_or_chtel_or_avane_or_ipode_or_chied_or_esist_or_ormat_or_butiv_or_mpere_or_szenz_or_iliar_or_hndet_or_nosse_or_nzlos_or_alent_or_alenz_or_atlos_or_kulum_or_aille_or_kkord_or_herte_or_szahl_or_lauge_or_sular_or_mbule_or_affee_or_ysmus_or_xuell_or_iance_or_tonne_or_itert_or_erlei_or_kyone_or_ottes_or_rfekt_or_uerer_or_elder_or_emend_or_uefen_or_kgang_or_uehlt_or_itzig_or_eabel_or_alzit_or_faess_or_gegen_or_davit_or_omeda_or_dernd_or_enoes_or_lehne_or_nelle_or_unger_or_lizei_or_badet_or_enehm_or_etreu_or_efall_or_ezirk_or_ffner_or_ustiz_or_alast_or_vkind_or_erten_or_ieter_or_nkuli_or_egabt_or_ikler_or_nerat_or_natur_or_nzert_or_ntage_or_nzeit_or_digma_or_onetz_or_tteln_or_rende_or_andis_or_anoid_or_itual_or_chirr_or_swahn_or_ndete_or_htsam_or_mmend_or_ssimo_or_lings_or_iearm_or_rguss_or_mmern_or_estil_or_ebeet_or_chmal_or_ivist_or_llare_or_dient_or_kwerk_or_evanz_or_lmuse_or_erber_or_onage_or_spora) and (signi_suffix = bar) => stress_class=paenultima (52.0/12.0)
(suffix_phoncat4 = LCKC) and (suffix3 = bel) => stress_class=paenultima (36.0/8.0)
 => stress_class=prima (5276.0/1795.0)

Number of Rules : 21
=== Classifier model ===

Scheme:   NeuralNetwork
Relation: 4syl-all_training-weka.filters.unsupervised.attribute.Remove-R88-weka.filters.unsupervised.attribute.RemoveByName-E^(Word)$-weka.filters.unsupervised.attribute.MergeInfrequentNominalValues-N5-Rfirst-last-weka.filters.unsupervised.attribute.RenameAttribute-find(_merged_infrequent_values)-remove-all-Rfirst-last-weka.filters.unsupervised.attribute.Remove-V-R2-13,88-weka.filters.unsupervised.attribute.RemoveByName-E^(suff_class|signi_suffix|suffix_phoncat.|suffix.)$-V

weka.classifiers.functions.NeuralNetwork@243dd5d4